{"learner":{"attributes":{"scikit_learn":"{\"_estimator_type\": \"regressor\"}"},"feature_names":["alcaldia_IZTAPALAPA","alcaldia_IZTACALCO","alcaldia_CUAUHTEMOC","alcaldia_AZCAPOTZALCO","tipo_col_FRACCIONAMIENTO","recamaras","alcaldia_GUSTAVO A. MADERO","grado_marginalidad","banos","tipo_col_COLONIA","alcaldia_TLAHUAC","alcaldia_VENUSTIANO CARRANZA","alcaldia_LA MAGDALENA CONTRERAS","estacionamientos","tipo_col_NO REGISTRADO","construccion","alcaldia_ALVARO OBREGON","tipo_col_UNIDAD HABITACIONAL","alcaldia_CUAJIMALPA DE MORELOS","alcaldia_TLALPAN","alcaldia_COYOACAN","tipo_col_PUEBLO","alcaldia_MIGUEL HIDALGO","tipo_col_BARRIO","pob_2010","alcaldia_BENITO JUAREZ","alcaldia_XOCHIMILCO","terreno"],"feature_types":["int","int","int","int","int","float","int","float","float","int","int","int","int","float","int","float","int","int","int","int","int","int","int","int","float","int","int","float"],"gradient_booster":{"model":{"gbtree_model_param":{"num_parallel_tree":"1","num_trees":"100"},"iteration_indptr":[0,1,2,3,4,5,6,7,8,9,10,11,12,13,14,15,16,17,18,19,20,21,22,23,24,25,26,27,28,29,30,31,32,33,34,35,36,37,38,39,40,41,42,43,44,45,46,47,48,49,50,51,52,53,54,55,56,57,58,59,60,61,62,63,64,65,66,67,68,69,70,71,72,73,74,75,76,77,78,79,80,81,82,83,84,85,86,87,88,89,90,91,92,93,94,95,96,97,98,99,100],"tree_info":[0,0,0,0,0,0,0,0,0,0,0,0,0,0,0,0,0,0,0,0,0,0,0,0,0,0,0,0,0,0,0,0,0,0,0,0,0,0,0,0,0,0,0,0,0,0,0,0,0,0,0,0,0,0,0,0,0,0,0,0,0,0,0,0,0,0,0,0,0,0,0,0,0,0,0,0,0,0,0,0,0,0,0,0,0,0,0,0,0,0,0,0,0,0,0,0,0,0,0,0],"trees":[{"base_weights":[-2.424608E-1,-2.522536E6,8.2697565E6,-4.360803E6,-7.163975E5,5.2470405E6,1.942167E7,-4.8145405E6,-2.990567E6,2.6921453E5,-1.9063765E6,4.301101E6,1.215519E7,1.46203E7,2.4211664E7,-7.9581094E5,-4.228095E6,-3.372625E6,-2.3001462E6,-1.5469139E6,1.8176866E6,-2.2957298E6,-4.475641E5,3.385762E6,8.690791E6,6.764105E6,1.6794708E7,1.5737619E7,2.8884503E5,2.534073E7,2.9163375E5,-5.7600794E5,-7.209617E5,-5.2018172E5,-1.0865501E5,2.88375E3,-3.5633772E5,-3.2559206E5,-1.15142055E5,2.1765345E5,1.230114E6,-2.9608612E5,-5.7268344E5,5.316579E5,-2.2576588E5,2.839646E5,9.3690056E5,9.0263494E5,5.062631E6,2.0209502E5,1.1924841E6,3.0016175E6,5.53845E5,2.4450118E6,3.3663375E5,1.5887008E6,4.1376782E6],"categories":[],"categories_nodes":[],"categories_segments":[],"categories_sizes":[],"default_left":[0,0,0,0,0,0,0,0,0,0,0,0,0,0,0,0,0,0,0,0,0,0,0,0,0,0,0,0,0,0,0,0,0,0,0,0,0,0,0,0,0,0,0,0,0,0,0,0,0,0,0,0,0,0,0,0,0],"id":0,"left_children":[1,3,5,7,9,11,13,15,17,19,21,23,25,27,29,-1,31,33,35,37,39,41,43,45,47,49,51,53,-1,55,-1,-1,-1,-1,-1,-1,-1,-1,-1,-1,-1,-1,-1,-1,-1,-1,-1,-1,-1,-1,-1,-1,-1,-1,-1,-1,-1],"loss_changes":[1.7314429E16,2.1085004E15,6.4376513E15,1.814468E14,3.7817335E14,9.54062E14,5.889592E14,4.521634E13,1.3608671E13,5.005755E14,8.189952E13,5.2104852E14,3.3661538E14,2.9592647E14,4.284187E14,0E0,6.677198E12,1.0100689E13,5.6446943E12,3.818986E13,2.1278281E14,4.8798345E13,1.4042756E14,4.7915447E14,1.3377006E15,5.3520963E13,3.0535902E14,1.2279848E14,0E0,3.0354467E14,0E0,0E0,0E0,0E0,0E0,0E0,0E0,0E0,0E0,0E0,0E0,0E0,0E0,0E0,0E0,0E0,0E0,0E0,0E0,0E0,0E0,0E0,0E0,0E0,0E0,0E0,0E0],"parents":[2147483647,0,0,1,1,2,2,3,3,4,4,5,5,6,6,7,7,8,8,9,9,10,10,11,11,12,12,13,13,14,14,16,16,17,17,18,18,19,19,20,20,21,21,22,22,23,23,24,24,25,25,26,26,27,27,29,29],"right_children":[2,4,6,8,10,12,14,16,18,20,22,24,26,28,30,-1,32,34,36,38,40,42,44,46,48,50,52,54,-1,56,-1,-1,-1,-1,-1,-1,-1,-1,-1,-1,-1,-1,-1,-1,-1,-1,-1,-1,-1,-1,-1,-1,-1,-1,-1,-1,-1],"split_conditions":[2.4781877E-1,-5.776724E-1,1.9302981E0,-5.6951416E-1,3E0,1E0,1.9562289E0,-7.0163935E-1,5.256271E-2,-2.5940204E-1,5.73126E-2,2.499977E0,-2.8348675E-1,1E0,2.849536E0,-7.9581094E5,4E0,5.2391744E-1,-8.9303786E-1,-3.298451E-1,1.17918E0,5E0,8.8039406E-2,1.17918E0,1E0,4.8748782E-1,2E0,6.451666E-1,2.8884503E5,-7.91343E-1,2.9163375E5,-5.7600794E5,-7.209617E5,-5.2018172E5,-1.0865501E5,2.88375E3,-3.5633772E5,-3.2559206E5,-1.15142055E5,2.1765345E5,1.230114E6,-2.9608612E5,-5.7268344E5,5.316579E5,-2.2576588E5,2.839646E5,9.3690056E5,9.0263494E5,5.062631E6,2.0209502E5,1.1924841E6,3.0016175E6,5.53845E5,2.4450118E6,3.3663375E5,1.5887008E6,4.1376782E6],"split_indices":[27,15,15,27,7,22,27,27,13,15,27,13,24,0,5,0,7,8,24,27,15,7,27,15,6,27,7,24,0,24,0,0,0,0,0,0,0,0,0,0,0,0,0,0,0,0,0,0,0,0,0,0,0,0,0,0,0],"split_type":[0,0,0,0,0,0,0,0,0,0,0,0,0,0,0,0,0,0,0,0,0,0,0,0,0,0,0,0,0,0,0,0,0,0,0,0,0,0,0,0,0,0,0,0,0,0,0,0,0,0,0,0,0,0,0,0,0],"sum_hessian":[8.28E2,6.35E2,1.93E2,3.14E2,3.21E2,1.53E2,4E1,2.34E2,8E1,1.76E2,1.45E2,1.36E2,1.7E1,2.2E1,1.8E1,1.23E2,1.11E2,4.9E1,3.1E1,8.1E1,9.5E1,1.14E2,3.1E1,1.14E2,2.2E1,9E0,8E0,2E1,2E0,1.7E1,1E0,7.1E1,4E1,4.7E1,2E0,1E0,3E1,4.4E1,3.7E1,9.1E1,4E0,9.6E1,1.8E1,6E0,2.5E1,7.6E1,3.8E1,2.1E1,1E0,2E0,7E0,6E0,2E0,1.9E1,1E0,3E0,1.4E1],"tree_param":{"num_deleted":"0","num_feature":"28","num_nodes":"57","size_leaf_vector":"1"}},{"base_weights":[2.2428893E4,-1.7421619E6,8.870794E6,-3.2645675E6,4.6959944E5,5.465447E6,1.7077258E7,-4.0786792E6,-2.0794809E6,1.8887634E6,-1.1451626E6,8.309282E6,2.840434E6,1.5594999E7,5.616401E6,-4.42243E6,-3.4268602E6,-2.5858622E6,-1.5106878E6,-4.935224E3,3.0371225E6,-1.4991736E6,1.5372411E6,5.5017865E6,1.393182E7,1.6260158E6,1.7310554E7,1.6297452E7,2.5996052E5,-6.686233E5,-1.740464E5,-4.095679E5,-5.664075E5,-4.1769653E5,-2.4871827E5,-2.8387156E5,-1.0601873E5,-5.311012E4,7.1953006E5,3.443272E5,1.0184836E6,-1.6043094E5,-4.4674225E5,-8.7712055E4,5.5984844E5,5.6533894E5,1.4555966E6,1.6338265E6,4.2365125E6,-2.6671695E4,6.5109706E5,4.682934E6,3.401549E5,2.4975372E6,2.6976122E5],"categories":[],"categories_nodes":[],"categories_segments":[],"categories_sizes":[],"default_left":[0,0,0,0,0,0,0,0,0,0,0,0,0,0,0,0,0,0,0,0,0,0,0,0,0,0,0,0,0,0,0,0,0,0,0,0,0,0,0,0,0,0,0,0,0,0,0,0,0,0,0,0,0,0,0],"id":1,"left_children":[1,3,5,7,9,11,13,15,17,19,21,23,25,27,-1,29,31,33,35,37,39,41,43,45,47,49,51,53,-1,-1,-1,-1,-1,-1,-1,-1,-1,-1,-1,-1,-1,-1,-1,-1,-1,-1,-1,-1,-1,-1,-1,-1,-1,-1,-1],"loss_changes":[1.2959248E16,2.3316336E15,3.7631924E15,3.8708393E14,6.506892E14,7.154436E14,6.235541E14,3.9068096E13,4.477007E13,3.2838656E14,1.28601454E14,6.652566E14,9.032101E14,3.51513E14,0E0,1.2554458E13,1.1089337E13,1.1611377E13,2.3829754E13,9.893334E13,2.4602344E14,7.180068E13,7.670946E13,2.0372614E14,3.449001E14,2.4560806E14,7.6612794E14,1.5931752E14,0E0,0E0,0E0,0E0,0E0,0E0,0E0,0E0,0E0,0E0,0E0,0E0,0E0,0E0,0E0,0E0,0E0,0E0,0E0,0E0,0E0,0E0,0E0,0E0,0E0,0E0,0E0],"parents":[2147483647,0,0,1,1,2,2,3,3,4,4,5,5,6,6,7,7,8,8,9,9,10,10,11,11,12,12,13,13,15,15,16,16,17,17,18,18,19,19,20,20,21,21,22,22,23,23,24,24,25,25,26,26,27,27],"right_children":[2,4,6,8,10,12,14,16,18,20,22,24,26,28,-1,30,32,34,36,38,40,42,44,46,48,50,52,54,-1,-1,-1,-1,-1,-1,-1,-1,-1,-1,-1,-1,-1,-1,-1,-1,-1,-1,-1,-1,-1,-1,-1,-1,-1,-1,-1],"split_conditions":[5.673775E-1,-3.3133113E-1,1.9302981E0,-5.6951416E-1,3E0,3E0,5.0411997E0,-2.9352E-1,5.256271E-2,-1.20902844E-1,3.0312702E-1,1.3956039E0,1E0,1E0,5.616401E6,-4.185372E-1,3E0,1E0,1E0,8.991021E-1,1E0,5E0,2.2636214E-1,2.1504223E0,1E0,1E0,2.1158231E-2,4.263725E0,2.5996052E5,-6.686233E5,-1.740464E5,-4.095679E5,-5.664075E5,-4.1769653E5,-2.4871827E5,-2.8387156E5,-1.0601873E5,-5.311012E4,7.1953006E5,3.443272E5,1.0184836E6,-1.6043094E5,-4.4674225E5,-8.7712055E4,5.5984844E5,5.6533894E5,1.4555966E6,1.6338265E6,4.2365125E6,-2.6671695E4,6.5109706E5,4.682934E6,3.401549E5,2.4975372E6,2.6976122E5],"split_indices":[27,15,15,27,7,7,27,8,13,27,27,15,6,0,0,15,7,2,25,15,22,7,24,27,22,16,5,5,0,0,0,0,0,0,0,0,0,0,0,0,0,0,0,0,0,0,0,0,0,0,0,0,0,0,0],"split_type":[0,0,0,0,0,0,0,0,0,0,0,0,0,0,0,0,0,0,0,0,0,0,0,0,0,0,0,0,0,0,0,0,0,0,0,0,0,0,0,0,0,0,0,0,0,0,0,0,0,0,0,0,0,0,0],"sum_hessian":[8.28E2,6.91E2,1.37E2,4.09E2,2.82E2,9.8E1,3.9E1,2.41E2,1.68E2,1.5E2,1.32E2,4.6E1,5.2E1,3.8E1,1E0,1.54E2,8.7E1,8.7E1,8.1E1,5.7E1,9.3E1,1.17E2,1.5E1,3.2E1,1.4E1,4.9E1,3E0,3.6E1,2E0,1.52E2,2E0,3.2E1,5.5E1,7E1,1.7E1,5.4E1,2.7E1,5.4E1,3E0,7.9E1,1.4E1,9.2E1,2.5E1,8E0,7E0,2.4E1,8E0,1.3E1,1E0,3E1,1.9E1,1E0,2E0,3.5E1,1E0],"tree_param":{"num_deleted":"0","num_feature":"28","num_nodes":"55","size_leaf_vector":"1"}},{"base_weights":[4.4639625E4,-1.4822548E6,7.700917E6,-2.8776132E6,2.873073E5,4.782385E6,1.473176E7,-3.3926582E6,-1.6747339E6,1.9435252E6,-6.521187E5,7.230789E6,2.5209255E6,1.3333371E7,5.195171E6,-3.7741742E6,-2.803415E6,-1.783672E6,-4.529114E5,1.3736404E6,9.109087E6,5.739986E4,-1.681638E6,4.737759E6,1.2233402E7,1.3946018E6,1.5969742E7,1.3935339E7,2.1969617E5,-4.3102884E5,-5.9254125E5,-3.3154988E5,-4.8653862E5,-3.9871775E5,-2.4377361E5,-1.6070222E5,7.552233E4,1.5041573E5,8.5480794E5,2.3682536E5,1.9967208E6,-1.6212556E5,1.680086E5,-3.053067E5,-1.96111E3,1.5214272E5,9.468842E5,1.4062578E6,3.9187742E6,-2.2800006E4,5.583157E5,4.3317135E6,3.061394E5,9.08239E5,2.2466158E6],"categories":[],"categories_nodes":[],"categories_segments":[],"categories_sizes":[],"default_left":[0,0,0,0,0,0,0,0,0,0,0,0,0,0,0,0,0,0,0,0,0,0,0,0,0,0,0,0,0,0,0,0,0,0,0,0,0,0,0,0,0,0,0,0,0,0,0,0,0,0,0,0,0,0,0],"id":2,"left_children":[1,3,5,7,9,11,13,15,17,19,21,23,25,27,-1,29,31,33,35,37,39,41,43,45,47,49,51,53,-1,-1,-1,-1,-1,-1,-1,-1,-1,-1,-1,-1,-1,-1,-1,-1,-1,-1,-1,-1,-1,-1,-1,-1,-1,-1,-1],"loss_changes":[9.702696E15,1.7094948E15,2.761271E15,2.340792E14,4.7737105E14,5.2993132E14,6.5147513E14,5.01169E13,1.4898268E13,4.4076085E14,1.4326729E14,5.2820957E14,7.805578E14,2.58229E14,0E0,1.418413E13,2.1547314E13,1.0650311E13,7.0455625E12,1.6110531E14,2.3214352E14,1.427286E14,4.719238E13,1.8710052E14,3.5068837E14,1.8055172E14,6.602537E14,2.1316298E14,0E0,0E0,0E0,0E0,0E0,0E0,0E0,0E0,0E0,0E0,0E0,0E0,0E0,0E0,0E0,0E0,0E0,0E0,0E0,0E0,0E0,0E0,0E0,0E0,0E0,0E0,0E0],"parents":[2147483647,0,0,1,1,2,2,3,3,4,4,5,5,6,6,7,7,8,8,9,9,10,10,11,11,12,12,13,13,15,15,16,16,17,17,18,18,19,19,20,20,21,21,22,22,23,23,24,24,25,25,26,26,27,27],"right_children":[2,4,6,8,10,12,14,16,18,20,22,24,26,28,-1,30,32,34,36,38,40,42,44,46,48,50,52,54,-1,-1,-1,-1,-1,-1,-1,-1,-1,-1,-1,-1,-1,-1,-1,-1,-1,-1,-1,-1,-1,-1,-1,-1,-1,-1,-1],"split_conditions":[5.673775E-1,-3.962583E-1,1.9302981E0,-5.264966E-1,2E0,3E0,5.0411997E0,-2.9352E-1,1E0,-4.312941E-2,4E0,1.3956039E0,1E0,6.451666E-1,5.195171E6,-6.859362E-1,3E0,-2.9352E-1,-5.649416E-1,1.1409876E0,6.6441625E-1,-1.57775E-1,1E0,2.3709975E-1,1E0,1E0,2.1158231E-2,6.6441625E-1,2.1969617E5,-4.3102884E5,-5.9254125E5,-3.3154988E5,-4.8653862E5,-3.9871775E5,-2.4377361E5,-1.6070222E5,7.552233E4,1.5041573E5,8.5480794E5,2.3682536E5,1.9967208E6,-1.6212556E5,1.680086E5,-3.053067E5,-1.96111E3,1.5214272E5,9.468842E5,1.4062578E6,3.9187742E6,-2.2800006E4,5.583157E5,4.3317135E6,3.061394E5,9.08239E5,2.2466158E6],"split_indices":[27,15,15,27,7,7,27,8,22,24,7,15,6,24,0,5,7,8,15,15,13,27,16,15,22,16,5,13,0,0,0,0,0,0,0,0,0,0,0,0,0,0,0,0,0,0,0,0,0,0,0,0,0,0,0],"split_type":[0,0,0,0,0,0,0,0,0,0,0,0,0,0,0,0,0,0,0,0,0,0,0,0,0,0,0,0,0,0,0,0,0,0,0,0,0,0,0,0,0,0,0,0,0,0,0,0,0,0,0,0,0,0,0],"sum_hessian":[8.28E2,6.91E2,1.37E2,3.86E2,3.05E2,9.8E1,3.9E1,2.69E2,1.17E2,1.1E2,1.95E2,4.6E1,5.2E1,3.8E1,1E0,1.6E2,1.09E2,1.07E2,1E1,1.03E2,7E0,1.16E2,7.9E1,3.2E1,1.4E1,4.9E1,3E0,3.6E1,2E0,2.9E1,1.31E2,4.9E1,6E1,1.4E1,9.3E1,6E0,4E0,9.6E1,7E0,3E0,4E0,5.6E1,6E1,6.5E1,1.4E1,1E1,2.2E1,1.3E1,1E0,3E1,1.9E1,1E0,2E0,5E0,3.1E1],"tree_param":{"num_deleted":"0","num_feature":"28","num_nodes":"55","size_leaf_vector":"1"}},{"base_weights":[6.2714723E4,-9.304236E5,9.000204E6,-2.0337948E6,1.5430538E6,7.1455065E6,2.0490456E7,-2.8648682E6,-1.0994402E6,1.3312595E6,1.0849903E7,4.707699E6,1.1124448E7,2.3780364E7,5.6858694E5,-3.334442E6,-2.451703E6,-1.1959229E6,2.9431032E6,2.5903575E6,-2.651436E5,2.062625E5,4.006835E6,7.258722E6,1.9445586E5,1.187235E7,1.7756773E5,3.0062044E7,1.9113918E6,-3.739893E5,-5.2348578E5,-3.057601E5,-4.1881772E5,-1.5659445E5,-4.3627653E5,5.8055206E5,1.088616E5,3.2580912E5,1.1750029E6,-1.6233434E5,3.021537E5,1.3855466E5,-1.4595323E5,1.1501504E6,1.5334625E5,-1.6004395E5,4.34267E5,1.848302E6,8.103293E4,1.1473714E6,5.062948E6],"categories":[],"categories_nodes":[],"categories_segments":[],"categories_sizes":[],"default_left":[0,0,0,0,0,0,0,0,0,0,0,0,0,0,0,0,0,0,0,0,0,0,0,0,0,0,0,0,0,0,0,0,0,0,0,0,0,0,0,0,0,0,0,0,0,0,0,0,0,0,0],"id":3,"left_children":[1,3,5,7,9,11,13,15,17,19,21,23,25,27,-1,29,31,33,35,37,39,41,-1,43,45,47,-1,49,-1,-1,-1,-1,-1,-1,-1,-1,-1,-1,-1,-1,-1,-1,-1,-1,-1,-1,-1,-1,-1,-1,-1],"loss_changes":[7.366714E15,2.0418232E15,1.6223938E15,3.983099E14,4.4088873E14,6.557215E14,5.1421013E14,4.47898E13,9.907832E13,4.5696315E14,8.3865484E14,5.3971747E14,1.8668102E14,2.4095196E14,0E0,7.6454444E12,1.5272031E13,5.9422315E13,9.527307E12,2.6151264E14,1.9029725E14,4.283017E12,0E0,6.8672366E13,6.440869E13,1.2073448E14,0E0,1.5544131E14,0E0,0E0,0E0,0E0,0E0,0E0,0E0,0E0,0E0,0E0,0E0,0E0,0E0,0E0,0E0,0E0,0E0,0E0,0E0,0E0,0E0,0E0,0E0],"parents":[2147483647,0,0,1,1,2,2,3,3,4,4,5,5,6,6,7,7,8,8,9,9,10,10,11,11,12,12,13,13,15,15,16,16,17,17,18,18,19,19,20,20,21,21,23,23,24,24,25,25,27,27],"right_children":[2,4,6,8,10,12,14,16,18,20,22,24,26,28,-1,30,32,34,36,38,40,42,-1,44,46,48,-1,50,-1,-1,-1,-1,-1,-1,-1,-1,-1,-1,-1,-1,-1,-1,-1,-1,-1,-1,-1,-1,-1,-1,-1],"split_conditions":[1.3956039E0,-1.20902844E-1,1E0,-6.3496107E-1,1E0,2.2294722E0,2E0,-7.0102483E-1,9.4365996E-1,3E0,1E0,4E0,1E0,2.5604734E0,5.6858694E5,-6.859362E-1,3E0,1E0,3E0,2.1504223E0,1.341355E0,1E0,4.006835E6,1E0,1E0,4.263725E0,1.7756773E5,1.2372217E0,1.9113918E6,-3.739893E5,-5.2348578E5,-3.057601E5,-4.1881772E5,-1.5659445E5,-4.3627653E5,5.8055206E5,1.088616E5,3.2580912E5,1.1750029E6,-1.6233434E5,3.021537E5,1.3855466E5,-1.4595323E5,1.1501504E6,1.5334625E5,-1.6004395E5,4.34267E5,1.848302E6,8.103293E4,1.1473714E6,5.062948E6],"split_indices":[15,27,22,15,23,15,7,27,15,7,6,7,0,15,0,5,7,0,7,27,8,0,0,3,16,5,0,27,0,0,0,0,0,0,0,0,0,0,0,0,0,0,0,0,0,0,0,0,0,0,0],"split_type":[0,0,0,0,0,0,0,0,0,0,0,0,0,0,0,0,0,0,0,0,0,0,0,0,0,0,0,0,0,0,0,0,0,0,0,0,0,0,0,0,0,0,0,0,0,0,0,0,0,0,0],"sum_hessian":[8.28E2,7.46E2,8.2E1,5.16E2,2.3E2,7.2E1,1E1,2.72E2,2.44E2,2.26E2,4E0,4.6E1,2.6E1,8E0,2E0,1.24E2,1.48E2,2.39E2,5E0,1.26E2,1E2,3E0,1E0,2.9E1,1.7E1,2.4E1,2E0,4E0,4E0,2.2E1,1.02E2,7E1,7.8E1,2.21E2,1.8E1,3E0,2E0,1.18E2,8E0,7.4E1,2.6E1,2E0,1E0,2.7E1,2E0,1.2E1,5E0,2.3E1,1E0,1E0,3E0],"tree_param":{"num_deleted":"0","num_feature":"28","num_nodes":"51","size_leaf_vector":"1"}},{"base_weights":[7.319837E4,-1.3603251E6,4.7724135E6,-2.3320478E6,-4.055023E5,3.038175E6,1.0615541E7,-2.7515608E6,-1.8522399E6,4.546555E5,-8.727391E5,2.3592198E6,7.923833E6,9.49007E6,4.4258115E6,-2.4287895E6,-4.77152E5,-2.528939E6,-1.6619906E6,1.9857522E5,8.996237E5,-1.1291372E6,8.973941E5,1.675202E6,5.587514E6,-1.5576625E5,9.550137E6,5.6231285E6,1.1360819E7,-4.1948506E5,-3.2307556E5,-1.4093164E5,-4.0944103E5,-3.1610088E5,-2.0788823E5,-3.7193027E4,4.2561434E5,-2.8988434E5,-1.0368518E5,-6.414182E4,4.2953247E5,4.5329747E5,6.864382E4,5.392854E5,3.7063225E6,-2.0621333E5,1.06322305E5,6.87696E5,1.9982801E6,9.8129856E5,-8.089001E4,1.7616864E6,7.495545E4],"categories":[],"categories_nodes":[],"categories_segments":[],"categories_sizes":[],"default_left":[0,0,0,0,0,0,0,0,0,0,0,0,0,0,0,0,0,0,0,0,0,0,0,0,0,0,0,0,0,0,0,0,0,0,0,0,0,0,0,0,0,0,0,0,0,0,0,0,0,0,0,0,0],"id":4,"left_children":[1,3,5,7,9,11,13,15,17,19,21,23,25,27,-1,29,-1,31,33,35,-1,37,39,41,43,45,47,49,51,-1,-1,-1,-1,-1,-1,-1,-1,-1,-1,-1,-1,-1,-1,-1,-1,-1,-1,-1,-1,-1,-1,-1,-1],"loss_changes":[5.5909973E15,5.891498E14,1.9336227E15,5.830834E13,1.2980775E14,4.8219477E14,6.554324E14,1.5284178E13,1.5108185E13,1.6062188E14,9.586979E13,2.8653995E14,2.3800534E14,2.4718208E14,0E0,3.9876758E12,0E0,7.322567E12,1.1833004E13,1.3031917E14,0E0,6.3047553E13,7.156403E13,1.822757E14,7.873498E14,5.1901104E12,2.1985186E14,9.412605E13,1.1083539E14,0E0,0E0,0E0,0E0,0E0,0E0,0E0,0E0,0E0,0E0,0E0,0E0,0E0,0E0,0E0,0E0,0E0,0E0,0E0,0E0,0E0,0E0,0E0,0E0],"parents":[2147483647,0,0,1,1,2,2,3,3,4,4,5,5,6,6,7,7,8,8,9,9,10,10,11,11,12,12,13,13,15,15,17,17,18,18,19,19,21,21,22,22,23,23,24,24,25,25,26,26,27,27,28,28],"right_children":[2,4,6,8,10,12,14,16,18,20,22,24,26,28,-1,30,-1,32,34,36,-1,38,40,42,44,46,48,50,52,-1,-1,-1,-1,-1,-1,-1,-1,-1,-1,-1,-1,-1,-1,-1,-1,-1,-1,-1,-1,-1,-1,-1,-1],"split_conditions":[2.4781877E-1,-5.776724E-1,1.8322709E0,-2.9352E-1,2E0,1E0,5.0411997E0,4E0,1E0,9.691216E-1,1E0,2.499977E0,-1.511901E-1,1.5076176E0,4.4258115E6,-5.592909E-1,-4.77152E5,2E0,-6.408003E-1,-2.7908912E-1,8.996237E5,5.256271E-2,-2.4667121E-1,3E0,1E0,5.256271E-2,-2.8348675E-1,2.97623E0,3.5566304E0,-4.1948506E5,-3.2307556E5,-1.4093164E5,-4.0944103E5,-3.1610088E5,-2.0788823E5,-3.7193027E4,4.2561434E5,-2.8988434E5,-1.0368518E5,-6.414182E4,4.2953247E5,4.5329747E5,6.864382E4,5.392854E5,3.7063225E6,-2.0621333E5,1.06322305E5,6.87696E5,1.9982801E6,9.8129856E5,-8.089001E4,1.7616864E6,7.495545E4],"split_indices":[27,15,15,8,7,22,27,7,9,15,2,13,15,27,0,13,0,7,27,24,0,13,15,7,6,13,24,8,5,0,0,0,0,0,0,0,0,0,0,0,0,0,0,0,0,0,0,0,0,0,0,0,0],"split_type":[0,0,0,0,0,0,0,0,0,0,0,0,0,0,0,0,0,0,0,0,0,0,0,0,0,0,0,0,0,0,0,0,0,0,0,0,0,0,0,0,0,0,0,0,0,0,0,0,0,0,0,0,0],"sum_hessian":[8.28E2,6.35E2,1.93E2,3.14E2,3.21E2,1.5E2,4.3E1,1.65E2,1.49E2,1.13E2,2.08E2,1.33E2,1.7E1,4.2E1,1E0,9.8E1,6.7E1,3E1,1.19E2,1.09E2,4E0,1.82E2,2.6E1,1.11E2,2.2E1,3E0,1.4E1,1.5E1,2.7E1,3.8E1,6E1,4E0,2.6E1,4.3E1,7.6E1,9.4E1,1.5E1,6.3E1,1.19E2,1.6E1,1E1,5.2E1,5.9E1,2.1E1,1E0,1E0,2E0,7E0,7E0,1.3E1,2E0,2.6E1,1E0],"tree_param":{"num_deleted":"0","num_feature":"28","num_nodes":"53","size_leaf_vector":"1"}},{"base_weights":[7.8481914E4,-6.786205E5,6.891458E6,-1.2495382E6,1.9908032E6,5.354909E6,1.646206E7,-1.9895235E6,-4.735618E5,1.692084E6,9.239855E6,4.704313E6,2.310243E6,1.9314186E7,2.4183288E6,-2.6847902E6,-1.7687E6,-1.28106375E5,-1.4639965E6,1.1925094E6,5.114575E6,1.2199025E5,3.4283485E6,6.410783E6,1.1759777E5,2.4961386E7,1.4706224E6,4.9033322E5,5.3790754E4,-4.0729644E5,-3.426709E4,-2.2764848E5,-3.4156172E5,-6.5125293E4,2.0842011E5,-2.4627584E5,4.460315E4,-2.1649342E5,2.4632394E5,1.4978481E6,4.8335297E5,1.1783476E5,-1.4015506E5,8.0889356E5,1.3905626E6,-1.7301031E5,2.2559067E5,9.8772125E5,4.1863992E6],"categories":[],"categories_nodes":[],"categories_segments":[],"categories_sizes":[],"default_left":[0,0,0,0,0,0,0,0,0,0,0,0,0,0,0,0,0,0,0,0,0,0,0,0,0,0,0,0,0,0,0,0,0,0,0,0,0,0,0,0,0,0,0,0,0,0,0,0,0],"id":5,"left_children":[1,3,5,7,9,11,13,15,17,19,21,23,-1,25,27,29,31,33,35,37,39,41,-1,43,45,47,-1,-1,-1,-1,-1,-1,-1,-1,-1,-1,-1,-1,-1,-1,-1,-1,-1,-1,-1,-1,-1,-1,-1],"loss_changes":[4.2807587E15,1.1409315E15,1.1324202E15,3.527719E14,2.7020233E14,4.0469974E14,3.9389145E14,4.3613782E13,1.0314208E14,2.1275392E14,6.1794694E14,5.4714273E14,0E0,2.3862033E14,4.0835125E12,4.927133E12,2.7429406E13,1.0510946E14,2.4921162E13,1.3629631E14,1.1529732E14,3.5378939E12,0E0,9.849783E13,3.6975403E13,8.708798E13,0E0,0E0,0E0,0E0,0E0,0E0,0E0,0E0,0E0,0E0,0E0,0E0,0E0,0E0,0E0,0E0,0E0,0E0,0E0,0E0,0E0,0E0,0E0],"parents":[2147483647,0,0,1,1,2,2,3,3,4,4,5,5,6,6,7,7,8,8,9,9,10,10,11,11,13,13,14,14,15,15,16,16,17,17,18,18,19,19,20,20,21,21,23,23,24,24,25,25],"right_children":[2,4,6,8,10,12,14,16,18,20,22,24,-1,26,28,30,32,34,36,38,40,42,-1,44,46,48,-1,-1,-1,-1,-1,-1,-1,-1,-1,-1,-1,-1,-1,-1,-1,-1,-1,-1,-1,-1,-1,-1,-1],"split_conditions":[1.3956039E0,1.9865589E-1,1E0,-5.776724E-1,1E0,1E0,2E0,-5.592909E-1,4E0,1E0,1E0,4E0,2.310243E6,2.5604734E0,3E0,1E0,4E0,3.9050606E-1,1E0,-6.8439804E-2,2.8469092E-1,1E0,3.4283485E6,1E0,9.975527E-1,1.2372217E0,1.4706224E6,4.9033322E5,5.3790754E4,-4.0729644E5,-3.426709E4,-2.2764848E5,-3.4156172E5,-6.5125293E4,2.0842011E5,-2.4627584E5,4.460315E4,-2.1649342E5,2.4632394E5,1.4978481E6,4.8335297E5,1.1783476E5,-1.4015506E5,8.0889356E5,1.3905626E6,-1.7301031E5,2.2559067E5,9.8772125E5,4.1863992E6],"split_indices":[15,27,22,15,23,18,7,13,7,22,6,7,0,15,7,18,7,15,22,15,27,0,0,16,27,27,0,0,0,0,0,0,0,0,0,0,0,0,0,0,0,0,0,0,0,0,0,0,0],"split_type":[0,0,0,0,0,0,0,0,0,0,0,0,0,0,0,0,0,0,0,0,0,0,0,0,0,0,0,0,0,0,0,0,0,0,0,0,0,0,0,0,0,0,0,0,0,0,0,0,0],"sum_hessian":[8.28E2,7.46E2,8.2E1,6.15E2,1.31E2,7.2E1,1E1,3.14E2,3.01E2,1.27E2,4E0,6.9E1,3E0,8E0,2E0,7.3E1,2.41E2,2.24E2,7.7E1,1.12E2,1.5E1,3E0,1E0,5E1,1.9E1,4E0,4E0,1E0,1E0,7.2E1,1E0,1.64E2,7.7E1,1.87E2,3.7E1,7E1,7E0,1.6E1,9.6E1,3E0,1.2E1,2E0,1E0,3.9E1,1.1E1,1E1,9E0,1E0,3E0],"tree_param":{"num_deleted":"0","num_feature":"28","num_nodes":"49","size_leaf_vector":"1"}},{"base_weights":[8.6129484E4,-7.995507E5,4.526742E6,-1.5084458E6,2.3029561E5,3.1307132E6,9.244303E6,-2.019432E6,-1.115484E6,-2.2342803E4,2.8384178E6,2.493616E6,7.594608E6,1.726157E7,6.6296965E6,-1.9154299E6,-4.2475584E5,-1.44917E6,-7.326683E5,3.8682584E5,-1.0904172E6,1.03069294E6,6.5509965E6,2.0990078E6,9.255685E6,3.3243935E6,1.0779878E7,2.8435812E6,5.3158025E5,1.4224624E6,7.860382E6,-2.0414473E5,-3.0341E5,-1.896381E5,-2.7747056E5,-1.5361553E5,-7.1549766E4,6.257128E3,2.9231278E5,-1.8391561E5,3.6586194E5,6.4043075E5,5.3848676E4,1.392551E6,2.2461034E5,-2.1908069E5,4.301405E5,1.4982988E5,3.1712222E6,2.0073445E5,8.289804E5,2.0624486E6,3.3554312E5,-7.0226625E4,2.8413388E5,3.7652062E5,1.4961072E6],"categories":[],"categories_nodes":[],"categories_segments":[],"categories_sizes":[],"default_left":[0,0,0,0,0,0,0,0,0,0,0,0,0,0,0,0,0,0,0,0,0,0,0,0,0,0,0,0,0,0,0,0,0,0,0,0,0,0,0,0,0,0,0,0,0,0,0,0,0,0,0,0,0,0,0,0,0],"id":6,"left_children":[1,3,5,7,9,11,13,15,17,19,21,23,25,27,29,31,-1,33,35,37,39,41,43,45,47,49,51,-1,-1,53,55,-1,-1,-1,-1,-1,-1,-1,-1,-1,-1,-1,-1,-1,-1,-1,-1,-1,-1,-1,-1,-1,-1,-1,-1,-1,-1],"loss_changes":[3.2640452E15,5.05544E14,8.799062E14,8.007463E13,1.8653546E14,2.8820707E14,5.3538324E14,9.528653E12,2.8829465E13,1.1361065E14,1.6103096E14,2.3673558E14,1.4098666E14,9.564006E13,1.4903053E14,6.7664525E12,0E0,6.847738E12,7.782246E12,1.0125801E14,3.7471803E13,3.7626954E13,9.657734E13,2.558865E14,4.6957683E14,2.3220942E13,1.4683674E14,0E0,0E0,6.238443E12,2.0113654E14,0E0,0E0,0E0,0E0,0E0,0E0,0E0,0E0,0E0,0E0,0E0,0E0,0E0,0E0,0E0,0E0,0E0,0E0,0E0,0E0,0E0,0E0,0E0,0E0,0E0,0E0],"parents":[2147483647,0,0,1,1,2,2,3,3,4,4,5,5,6,6,7,7,8,8,9,9,10,10,11,11,12,12,13,13,14,14,15,15,17,17,18,18,19,19,20,20,21,21,22,22,23,23,24,24,25,25,26,26,29,29,30,30],"right_children":[2,4,6,8,10,12,14,16,18,20,22,24,26,28,30,32,-1,34,36,38,40,42,44,46,48,50,52,-1,-1,54,56,-1,-1,-1,-1,-1,-1,-1,-1,-1,-1,-1,-1,-1,-1,-1,-1,-1,-1,-1,-1,-1,-1,-1,-1,-1,-1],"split_conditions":[5.673775E-1,-3.3133113E-1,2.2294722E0,-2.9352E-1,1E0,1E0,2.5604734E0,1E0,-5.080605E-1,4E0,6.6441625E-1,1E0,7.017745E-1,2.97623E0,1.341355E0,-6.859362E-1,-4.2475584E5,4E0,5.256271E-2,1.341355E0,1E0,1E0,2.1163812E-1,1.925419E-1,5E0,2.6260731E0,2E0,2.8435812E6,5.3158025E5,5.2391744E-1,-7.007108E-1,-2.0414473E5,-3.0341E5,-1.896381E5,-2.7747056E5,-1.5361553E5,-7.1549766E4,6.257128E3,2.9231278E5,-1.8391561E5,3.6586194E5,6.4043075E5,5.3848676E4,1.392551E6,2.2461034E5,-2.1908069E5,4.301405E5,1.4982988E5,3.1712222E6,2.0073445E5,8.289804E5,2.0624486E6,3.3554312E5,-7.0226625E4,2.8413388E5,3.7652062E5,1.4961072E6],"split_indices":[27,15,15,8,22,22,15,0,27,7,13,6,15,8,8,5,0,7,13,8,18,9,15,15,7,27,7,0,0,8,24,0,0,0,0,0,0,0,0,0,0,0,0,0,0,0,0,0,0,0,0,0,0,0,0,0,0],"split_type":[0,0,0,0,0,0,0,0,0,0,0,0,0,0,0,0,0,0,0,0,0,0,0,0,0,0,0,0,0,0,0,0,0,0,0,0,0,0,0,0,0,0,0,0,0,0,0,0,0,0,0,0,0,0,0,0,0],"sum_hessian":[8.28E2,6.91E2,1.37E2,4.09E2,2.82E2,1.07E2,3E1,1.76E2,2.33E2,2.58E2,2.4E1,9.5E1,1.2E1,6E0,2.4E1,1.59E2,1.7E1,1.23E2,1.1E2,1.87E2,7.1E1,1.7E1,7E0,9.1E1,4E0,6E0,6E0,5E0,1E0,5E0,1.9E1,2.8E1,1.31E2,8.7E1,3.6E1,5E1,6E1,1.54E2,3.3E1,6.9E1,2E0,2E0,1.5E1,4E0,3E0,1.6E1,7.5E1,3E0,1E0,4E0,2E0,4E0,2E0,1E0,4E0,6E0,1.3E1],"tree_param":{"num_deleted":"0","num_feature":"28","num_nodes":"57","size_leaf_vector":"1"}},{"base_weights":[8.960199E4,-4.8841494E5,5.290675E6,-9.148025E5,1.5050936E6,4.0079965E6,1.3322025E7,-1.3695715E6,-2.4802858E5,1.2485108E6,7.772597E6,3.466826E6,1.8714719E6,1.5611388E7,2.0132586E6,-1.473566E6,-1.5571369E5,-4.6756203E5,8.247743E5,1.7085106E6,-1.4803572E6,-6.2188625E4,2.9333805E6,4.797806E6,-1.00513625E5,1.9290138E7,9.2856244E5,4.2839253E5,2.4590701E4,-2.426844E5,-1.3499058E5,-9.6496875E4,4.76176E5,-1.6213006E5,-2.841115E4,1.9418667E5,-2.664447E5,-1.4783011E5,3.3173512E5,-4.331746E5,-2.9131541E4,6.3037203E4,-1.1321239E5,7.550205E5,-9.75965E4,-2.0036123E5,1.9024328E5,7.589585E5,3.1686418E6],"categories":[],"categories_nodes":[],"categories_segments":[],"categories_sizes":[],"default_left":[0,0,0,0,0,0,0,0,0,0,0,0,0,0,0,0,0,0,0,0,0,0,0,0,0,0,0,0,0,0,0,0,0,0,0,0,0,0,0,0,0,0,0,0,0,0,0,0,0],"id":7,"left_children":[1,3,5,7,9,11,13,15,17,19,21,23,-1,25,27,29,31,33,35,37,39,41,-1,43,45,47,-1,-1,-1,-1,-1,-1,-1,-1,-1,-1,-1,-1,-1,-1,-1,-1,-1,-1,-1,-1,-1,-1,-1],"loss_changes":[2.494814E15,6.363323E14,8.016409E14,1.864488E14,2.0256955E14,2.9129743E14,2.5335905E14,4.5972458E13,5.9500187E13,1.6320488E14,4.6281326E14,3.3284614E14,0E0,1.9250272E14,4.207021E12,2.6444785E13,5.075654E13,3.544931E13,5.4845248E13,1.5125794E14,3.3833286E13,1.6536484E12,0E0,6.875907E13,3.5509754E13,4.9720286E13,0E0,0E0,0E0,0E0,0E0,0E0,0E0,0E0,0E0,0E0,0E0,0E0,0E0,0E0,0E0,0E0,0E0,0E0,0E0,0E0,0E0,0E0,0E0],"parents":[2147483647,0,0,1,1,2,2,3,3,4,4,5,5,6,6,7,7,8,8,9,9,10,10,11,11,13,13,14,14,15,15,16,16,17,17,18,18,19,19,20,20,21,21,23,23,24,24,25,25],"right_children":[2,4,6,8,10,12,14,16,18,20,22,24,-1,26,28,30,32,34,36,38,40,42,-1,44,46,48,-1,-1,-1,-1,-1,-1,-1,-1,-1,-1,-1,-1,-1,-1,-1,-1,-1,-1,-1,-1,-1,-1,-1],"split_conditions":[1.3956039E0,1.9865589E-1,1E0,5.256271E-2,1E0,1E0,2E0,1E0,3.9050606E-1,1E0,1E0,4E0,1.8714719E6,3.0442445E0,3E0,1E0,-6.8439804E-2,-6.33922E-1,2.1424415E0,-6.8439804E-2,5.286354E-1,1E0,2.9333805E6,4.263725E0,1.7647976E0,1.2372217E0,9.2856244E5,4.2839253E5,2.4590701E4,-2.426844E5,-1.3499058E5,-9.6496875E4,4.76176E5,-1.6213006E5,-2.841115E4,1.9418667E5,-2.664447E5,-1.4783011E5,3.3173512E5,-4.331746E5,-2.9131541E4,6.3037203E4,-1.1321239E5,7.550205E5,-9.75965E4,-2.0036123E5,1.9024328E5,7.589585E5,3.1686418E6],"split_indices":[15,27,22,13,23,18,7,22,15,19,6,7,0,15,7,2,15,24,5,15,15,0,0,5,15,27,0,0,0,0,0,0,0,0,0,0,0,0,0,0,0,0,0,0,0,0,0,0,0],"split_type":[0,0,0,0,0,0,0,0,0,0,0,0,0,0,0,0,0,0,0,0,0,0,0,0,0,0,0,0,0,0,0,0,0,0,0,0,0,0,0,0,0,0,0,0,0,0,0,0,0],"sum_hessian":[8.28E2,7.46E2,8.2E1,6.15E2,1.31E2,7.2E1,1E1,3.65E2,2.5E2,1.27E2,4E0,6.9E1,3E0,8E0,2E0,3.36E2,2.9E1,2.08E2,4.2E1,1.09E2,1.8E1,3E0,1E0,5E1,1.9E1,5E0,3E0,1E0,1E0,2.67E2,6.9E1,2.6E1,3E0,6.4E1,1.44E2,3.6E1,6E0,1.7E1,9.2E1,8E0,1E1,2E0,1E0,4.8E1,2E0,1E1,9E0,1E0,4E0],"tree_param":{"num_deleted":"0","num_feature":"28","num_nodes":"49","size_leaf_vector":"1"}},{"base_weights":[8.8431836E4,-5.827467E5,3.4534108E6,-1.1524759E6,1.396976E5,3.15463E6,3.3289792E6,-1.4962598E6,-7.881512E5,1.0654919E6,-3.8531706E5,2.1340942E6,5.4121725E6,-1.8841796E6,-1.3012736E6,-8.693282E5,2.1686927E5,7.1378275E5,5.5045245E6,-5.8282506E5,1.3818948E6,1.8047296E6,7.7675875E6,6.230233E5,6.042516E6,-8.721684E4,-2.942007E5,-2.4294053E5,-1.6778188E5,-9.3449234E4,-1.8771027E5,1.132932E5,-1.9180336E4,-3.3565297E4,2.2820912E5,1.5580617E5,1.196441E6,-1.2065884E5,7.945007E4,-3.9129793E4,3.7482106E5,5.297481E5,2.2220898E4,9.973418E4,2.713377E6,2.3485436E5,-3.0677538E5,2.2129773E5,1.00650556E6],"categories":[],"categories_nodes":[],"categories_segments":[],"categories_sizes":[],"default_left":[0,0,0,0,0,0,0,0,0,0,0,0,0,0,0,0,0,0,0,0,0,0,0,0,0,0,0,0,0,0,0,0,0,0,0,0,0,0,0,0,0,0,0,0,0,0,0,0,0],"id":8,"left_children":[1,3,5,7,9,11,-1,13,15,17,19,21,23,25,27,29,31,33,35,37,39,41,43,45,47,-1,-1,-1,-1,-1,-1,-1,-1,-1,-1,-1,-1,-1,-1,-1,-1,-1,-1,-1,-1,-1,-1,-1,-1],"loss_changes":[1.8743103E15,2.8498658E14,7.026628E14,4.729202E13,1.4914356E14,3.040845E14,0E0,1.2524695E13,1.5689599E13,1.6936952E14,6.9216946E13,1.6410718E14,1.2302545E14,5.292641E12,6.0410393E12,1.5785053E13,2.88078E12,7.9086865E13,8.002202E13,4.40551E13,3.734822E13,2.62671E14,3.5452808E14,1.8293497E13,1.0290245E14,0E0,0E0,0E0,0E0,0E0,0E0,0E0,0E0,0E0,0E0,0E0,0E0,0E0,0E0,0E0,0E0,0E0,0E0,0E0,0E0,0E0,0E0,0E0,0E0],"parents":[2147483647,0,0,1,1,2,2,3,3,4,4,5,5,7,7,8,8,9,9,10,10,11,11,12,12,13,13,14,14,15,15,16,16,17,17,18,18,19,19,20,20,21,21,22,22,23,23,24,24],"right_children":[2,4,6,8,10,12,-1,14,16,18,20,22,24,26,28,30,32,34,36,38,40,42,44,46,48,-1,-1,-1,-1,-1,-1,-1,-1,-1,-1,-1,-1,-1,-1,-1,-1,-1,-1,-1,-1,-1,-1,-1,-1],"split_conditions":[5.673775E-1,-3.962583E-1,5.0411997E0,-6.3096774E-1,2E0,1.8322709E0,3.3289792E6,-5.592909E-1,1E0,-4.312941E-2,1E0,1E0,1E0,-9.595968E-1,-7.292935E-1,3E0,2E0,5.2391744E-1,6.6441625E-1,1E0,-2.4667121E-1,3E0,5E0,1E0,6.6441625E-1,-8.721684E4,-2.942007E5,-2.4294053E5,-1.6778188E5,-9.3449234E4,-1.8771027E5,1.132932E5,-1.9180336E4,-3.3565297E4,2.2820912E5,1.5580617E5,1.196441E6,-1.2065884E5,7.945007E4,-3.9129793E4,3.7482106E5,5.297481E5,2.2220898E4,9.973418E4,2.713377E6,2.3485436E5,-3.0677538E5,2.2129773E5,1.00650556E6],"split_indices":[27,15,27,27,7,15,0,13,22,24,2,6,9,15,27,7,7,8,13,16,15,7,7,6,13,0,0,0,0,0,0,0,0,0,0,0,0,0,0,0,0,0,0,0,0,0,0,0,0],"split_type":[0,0,0,0,0,0,0,0,0,0,0,0,0,0,0,0,0,0,0,0,0,0,0,0,0,0,0,0,0,0,0,0,0,0,0,0,0,0,0,0,0,0,0,0,0,0,0,0,0],"sum_hessian":[8.28E2,6.91E2,1.37E2,3.86E2,3.05E2,1.36E2,1E0,1.97E2,1.89E2,1.1E2,1.95E2,9.5E1,4.1E1,6.3E1,1.34E2,1.75E2,1.4E1,1.03E2,7E0,1.76E2,1.9E1,9.1E1,4E0,5E0,3.6E1,4E0,5.9E1,4.6E1,8.8E1,1.08E2,6.7E1,5E0,9E0,4.8E1,5.5E1,3E0,4E0,1.47E2,2.9E1,8E0,1.1E1,4.4E1,4.7E1,3E0,1E0,4E0,1E0,5E0,3.1E1],"tree_param":{"num_deleted":"0","num_feature":"28","num_nodes":"49","size_leaf_vector":"1"}},{"base_weights":[8.56763E4,-3.578415E5,4.0763042E6,-8.1605394E5,6.692307E5,2.9945815E6,1.0884436E7,-1.1579961E6,-4.3170175E5,5.350466E5,6.627341E6,2.52651E6,1.5655778E6,1.2709502E7,1.781091E6,-1.4745325E6,-9.635502E5,-4.9270412E5,2.0803431E6,1.2210079E6,-3.327962E5,-8.206975E4,2.509874E6,3.5565192E6,-2.2633858E5,1.7218492E7,8.487918E5,3.796657E5,2.10798E4,-2.2557255E5,-5.7166613E4,-2.1770412E5,-1.2215773E5,-6.056166E4,-2.453846E5,3.9497912E5,9.7464125E4,1.3898128E5,7.4682544E5,-1.4188217E5,2.208147E5,5.4511402E4,-1.0638803E5,4.8285716E5,1.5322578E6,-1.4325611E5,2.4497098E5,6.265487E5,2.915193E6],"categories":[],"categories_nodes":[],"categories_segments":[],"categories_sizes":[],"default_left":[0,0,0,0,0,0,0,0,0,0,0,0,0,0,0,0,0,0,0,0,0,0,0,0,0,0,0,0,0,0,0,0,0,0,0,0,0,0,0,0,0,0,0,0,0,0,0,0,0],"id":9,"left_children":[1,3,5,7,9,11,13,15,17,19,21,23,-1,25,27,29,31,33,35,37,39,41,-1,43,45,47,-1,-1,-1,-1,-1,-1,-1,-1,-1,-1,-1,-1,-1,-1,-1,-1,-1,-1,-1,-1,-1,-1,-1],"loss_changes":[1.4687178E15,3.5209722E14,5.7866014E14,6.744743E13,1.8113474E14,2.2793821E14,1.6011947E14,1.5382157E13,3.8568957E13,1.3554095E14,3.4037126E14,1.9928709E14,0E0,1.8869885E14,3.335623E12,2.6929445E12,1.133353E13,2.374708E13,3.0344468E12,1.3591912E14,1.1315432E14,1.3753384E12,0E0,8.171766E13,2.8659832E13,6.332983E13,0E0,0E0,0E0,0E0,0E0,0E0,0E0,0E0,0E0,0E0,0E0,0E0,0E0,0E0,0E0,0E0,0E0,0E0,0E0,0E0,0E0,0E0,0E0],"parents":[2147483647,0,0,1,1,2,2,3,3,4,4,5,5,6,6,7,7,8,8,9,9,10,10,11,11,13,13,14,14,15,15,16,16,17,17,18,18,19,19,20,20,21,21,23,23,24,24,25,25],"right_children":[2,4,6,8,10,12,14,16,18,20,22,24,-1,26,28,30,32,34,36,38,40,42,-1,44,46,48,-1,-1,-1,-1,-1,-1,-1,-1,-1,-1,-1,-1,-1,-1,-1,-1,-1,-1,-1,-1,-1,-1,-1],"split_conditions":[1.3956039E0,-1.20902844E-1,1E0,-5.467763E-1,1E0,1E0,2E0,-7.243772E-1,9.4365996E-1,3E0,1E0,4E0,1.5655778E6,2.5604734E0,3E0,5.2391744E-1,1E0,1E0,3E0,2.1504223E0,1E0,1E0,2.509874E6,6.782952E0,1E0,1.2372217E0,8.487918E5,3.796657E5,2.10798E4,-2.2557255E5,-5.7166613E4,-2.1770412E5,-1.2215773E5,-6.056166E4,-2.453846E5,3.9497912E5,9.7464125E4,1.3898128E5,7.4682544E5,-1.4188217E5,2.208147E5,5.4511402E4,-1.0638803E5,4.8285716E5,1.5322578E6,-1.4325611E5,2.4497098E5,6.265487E5,2.915193E6],"split_indices":[15,27,22,27,23,18,7,27,15,7,6,7,0,15,7,8,9,0,7,27,16,0,0,13,16,27,0,0,0,0,0,0,0,0,0,0,0,0,0,0,0,0,0,0,0,0,0,0,0],"split_type":[0,0,0,0,0,0,0,0,0,0,0,0,0,0,0,0,0,0,0,0,0,0,0,0,0,0,0,0,0,0,0,0,0,0,0,0,0,0,0,0,0,0,0,0,0,0,0,0,0],"sum_hessian":[8.28E2,7.46E2,8.2E1,5.16E2,2.3E2,7.2E1,1E1,2.72E2,2.44E2,2.26E2,4E0,6.9E1,3E0,8E0,2E0,1.01E2,1.71E2,2.39E2,5E0,1.26E2,1E2,3E0,1E0,5E1,1.9E1,4E0,4E0,1E0,1E0,9.8E1,3E0,3.8E1,1.33E2,2.23E2,1.6E1,3E0,2E0,1.18E2,8E0,7.5E1,2.5E1,2E0,1E0,4.9E1,1E0,1.4E1,5E0,1E0,3E0],"tree_param":{"num_deleted":"0","num_feature":"28","num_nodes":"49","size_leaf_vector":"1"}},{"base_weights":[8.664906E4,-3.0016712E5,3.566951E6,-5.749454E5,9.844051E5,3.1453012E6,2.8606662E6,-9.865774E5,-2.4660089E5,7.7591625E5,6.12484E6,5.0518135E6,1.689609E6,-9.091883E5,-2.4870061E5,6.188605E4,-6.7548475E5,-4.154946E5,1.544968E6,-8.272825E4,2.3216335E6,4.36487E6,2.1305918E6,1.120926E6,1.476932E6,-1.6385914E5,-1.0234021E5,-1.0122085E5,7.586229E4,-1.2338875E5,4.1656145E4,-1.2893224E5,7.525535E5,1.707841E5,6.292023E5,4.90603E4,-9.840893E4,4.6193884E5,8.6813744E5,1.0888251E5,1.4173384E6],"categories":[],"categories_nodes":[],"categories_segments":[],"categories_sizes":[],"default_left":[0,0,0,0,0,0,0,0,0,0,0,0,0,0,0,0,0,0,0,0,0,0,0,0,0,0,0,0,0,0,0,0,0,0,0,0,0,0,0,0,0],"id":10,"left_children":[1,3,5,7,9,11,-1,13,15,17,19,21,23,25,-1,27,29,31,33,35,-1,37,-1,39,-1,-1,-1,-1,-1,-1,-1,-1,-1,-1,-1,-1,-1,-1,-1,-1,-1],"loss_changes":[1.1171012E15,2.6423642E14,4.8261333E14,8.30135E13,1.36715126E14,2.1903863E14,0E0,1.2677938E13,4.5554747E13,1.1792278E14,2.9156855E14,1.5804647E14,2.1161217E14,9.523251E12,0E0,6.6066236E13,2.0420296E13,1.27341175E14,7.921943E13,1.154374E12,0E0,4.4348356E13,0E0,1.444772E14,0E0,0E0,0E0,0E0,0E0,0E0,0E0,0E0,0E0,0E0,0E0,0E0,0E0,0E0,0E0,0E0,0E0],"parents":[2147483647,0,0,1,1,2,2,3,3,4,4,5,5,7,7,8,8,9,9,10,10,11,11,12,12,13,13,15,15,16,16,17,17,18,18,19,19,21,21,23,23],"right_children":[2,4,6,8,10,12,-1,14,16,18,20,22,24,26,-1,28,30,32,34,36,-1,38,-1,40,-1,-1,-1,-1,-1,-1,-1,-1,-1,-1,-1,-1,-1,-1,-1,-1,-1],"split_conditions":[1.3956039E0,1.9865589E-1,5.0411997E0,-5.467763E-1,1E0,2E0,2.8606662E6,1E0,3E0,5.2391744E-1,1E0,8.4677234E-4,1E0,-7.9855204E-1,-2.4870061E5,-6.347465E-1,1E0,2.6260731E0,1E0,1E0,2.3216335E6,-4.1404104E-1,2.1305918E6,6.782952E0,1.476932E6,-1.6385914E5,-1.0234021E5,-1.0122085E5,7.586229E4,-1.2338875E5,4.1656145E4,-1.2893224E5,7.525535E5,1.707841E5,6.292023E5,4.90603E4,-9.840893E4,4.6193884E5,8.6813744E5,1.0888251E5,1.4173384E6],"split_indices":[15,27,27,27,23,7,0,0,7,8,6,24,18,15,0,24,2,27,22,0,0,24,0,13,0,0,0,0,0,0,0,0,0,0,0,0,0,0,0,0,0],"split_type":[0,0,0,0,0,0,0,0,0,0,0,0,0,0,0,0,0,0,0,0,0,0,0,0,0,0,0,0,0,0,0,0,0,0,0,0,0,0,0,0,0],"sum_hessian":[8.28E2,7.46E2,8.2E1,6.15E2,1.31E2,8.1E1,1E0,2.72E2,3.43E2,1.27E2,4E0,3.4E1,4.7E1,2.46E2,2.6E1,2E2,1.43E2,5E1,7.7E1,3E0,1E0,3.3E1,1E0,4.5E1,2E0,1.34E2,1.12E2,7.5E1,1.25E2,1.24E2,1.9E1,4.7E1,3E0,6.8E1,9E0,2E0,1E0,1.9E1,1.4E1,4.4E1,1E0],"tree_param":{"num_deleted":"0","num_feature":"28","num_nodes":"41","size_leaf_vector":"1"}},{"base_weights":[8.860754E4,-2.5102706E5,3.1442515E6,-6.0104956E5,5.334433E5,2.7523332E6,2.6461162E6,-6.289865E5,1.883078E6,4.1816103E5,5.660571E6,3.4309222E6,-2.6127934E5,-1.0252557E6,-4.857978E5,3.4865012E5,1.000566E5,-9.5630044E5,7.262751E5,-8.2656E4,2.147511E6,2.7402168E6,8.182348E6,-1.3749226E6,5.443989E5,-8.885669E4,-1.6632917E5,-8.373251E4,6.0746145E4,-1.8640047E5,4.771086E5,1.4562423E5,-2.8991675E5,4.41543E4,-9.102825E4,6.5893775E5,6.150507E4,1.2980641E5,1.3656006E6,-3.6471803E5,3.8008127E3,1.5065727E5,-1.2955325E5],"categories":[],"categories_nodes":[],"categories_segments":[],"categories_sizes":[],"default_left":[0,0,0,0,0,0,0,0,0,0,0,0,0,0,0,0,0,0,0,0,0,0,0,0,0,0,0,0,0,0,0,0,0,0,0,0,0,0,0,0,0,0,0],"id":11,"left_children":[1,3,5,7,9,11,-1,13,15,17,19,21,23,25,27,-1,-1,29,31,33,-1,35,37,39,41,-1,-1,-1,-1,-1,-1,-1,-1,-1,-1,-1,-1,-1,-1,-1,-1,-1,-1],"loss_changes":[8.6112745E14,2.054336E14,4.2300724E14,3.706367E13,1.3416948E14,1.685868E14,0E0,2.8553446E13,1.6690604E12,9.6826984E13,2.4975507E14,1.9746152E14,1.5104318E13,4.2289154E12,2.4610347E13,0E0,0E0,5.3710693E13,1.22828414E14,9.691649E11,0E0,2.2926452E14,4.6071443E13,1.0417544E13,7.344433E12,0E0,0E0,0E0,0E0,0E0,0E0,0E0,0E0,0E0,0E0,0E0,0E0,0E0,0E0,0E0,0E0,0E0,0E0],"parents":[2147483647,0,0,1,1,2,2,3,3,4,4,5,5,7,7,8,8,9,9,10,10,11,11,12,12,13,13,14,14,17,17,18,18,19,19,21,21,22,22,23,23,24,24],"right_children":[2,4,6,8,10,12,-1,14,16,18,20,22,24,26,28,-1,-1,30,32,34,-1,36,38,40,42,-1,-1,-1,-1,-1,-1,-1,-1,-1,-1,-1,-1,-1,-1,-1,-1,-1,-1],"split_conditions":[1.3956039E0,-1.20902844E-1,5.0411997E0,9.4365996E-1,1E0,6.451666E-1,2.6461162E6,-7.0102483E-1,3E0,1E0,1E0,1.7097963E-1,1.6120278E0,-6.859362E-1,1E0,3.4865012E5,1.000566E5,1E0,1.0292023E0,1E0,2.147511E6,2E0,3E0,7.517383E-1,1E0,-8.885669E4,-1.6632917E5,-8.373251E4,6.0746145E4,-1.8640047E5,4.771086E5,1.4562423E5,-2.8991675E5,4.41543E4,-9.102825E4,6.5893775E5,6.150507E4,1.2980641E5,1.3656006E6,-3.6471803E5,3.8008127E3,1.5065727E5,-1.2955325E5],"split_indices":[15,27,27,15,23,24,0,27,7,9,6,24,15,5,22,0,0,22,24,0,0,7,7,27,20,0,0,0,0,0,0,0,0,0,0,0,0,0,0,0,0,0,0],"split_type":[0,0,0,0,0,0,0,0,0,0,0,0,0,0,0,0,0,0,0,0,0,0,0,0,0,0,0,0,0,0,0,0,0,0,0,0,0,0,0,0,0,0,0],"sum_hessian":[8.28E2,7.46E2,8.2E1,5.16E2,2.3E2,8.1E1,1E0,5.11E2,5E0,2.26E2,4E0,6.6E1,1.5E1,1.34E2,3.77E2,3E0,2E0,4.1E1,1.85E2,3E0,1E0,5.9E1,7E0,6E0,9E0,2.3E1,1.11E2,3.49E2,2.8E1,3.9E1,2E0,1.7E2,1.5E1,2E0,1E0,3.4E1,2.5E1,1E0,6E0,3E0,3E0,7E0,2E0],"tree_param":{"num_deleted":"0","num_feature":"28","num_nodes":"43","size_leaf_vector":"1"}},{"base_weights":[8.3687664E4,-2.6090177E5,2.3622682E6,-3.123518E5,5.031626E6,2.0819612E6,2.4476575E6,-5.6663244E5,3.4525394E5,1.9864476E6,1.4559024E6,-2.1150068E6,2.4388688E6,-1.1218618E6,-4.321251E5,1.7551531E5,3.5527365E6,7.225708E5,3.84192E5,-4.5066478E5,-1.7543338E5,-3.0099872E5,3.0852698E6,-1.793502E5,1.4226066E5,-9.9096266E4,-5.025587E3,1.5941466E5,-4.8545504E4,2.3492172E5,1.1499104E6,1.2460328E5,2.17575E4,-1.9939261E5,2.6978578E5,5.4386194E5,-1.6720289E5],"categories":[],"categories_nodes":[],"categories_segments":[],"categories_sizes":[],"default_left":[0,0,0,0,0,0,0,0,0,0,0,0,0,0,0,0,0,0,0,0,0,0,0,0,0,0,0,0,0,0,0,0,0,0,0,0,0],"id":12,"left_children":[1,3,5,7,9,11,-1,13,15,-1,17,19,21,23,25,27,29,31,-1,-1,-1,33,35,-1,-1,-1,-1,-1,-1,-1,-1,-1,-1,-1,-1,-1,-1],"loss_changes":[6.515262E14,1.9790057E14,3.9241452E14,1.1975535E14,1.8625032E14,1.669346E14,0E0,3.8051363E13,1.0826317E14,0E0,3.0129426E12,4.054315E12,1.7803398E14,1.6413838E13,3.7963057E13,8.493253E13,6.9708947E13,1.9170984E11,0E0,0E0,0E0,4.556996E13,1.8790965E14,0E0,0E0,0E0,0E0,0E0,0E0,0E0,0E0,0E0,0E0,0E0,0E0,0E0,0E0],"parents":[2147483647,0,0,1,1,2,2,3,3,4,4,5,5,7,7,8,8,10,10,11,11,12,12,13,13,14,14,15,15,16,16,17,17,21,21,22,22],"right_children":[2,4,6,8,10,12,-1,14,16,-1,18,20,22,24,26,28,30,32,-1,-1,-1,34,36,-1,-1,-1,-1,-1,-1,-1,-1,-1,-1,-1,-1,-1,-1],"split_conditions":[8.7464553E-1,2.499977E0,5.0411997E0,5.2391744E-1,1E0,-6.8439804E-2,2.4476575E6,1E0,1E0,1.9864476E6,1.4353471E0,-6.858843E-1,1E0,1E0,5.256271E-2,2E0,6.6441625E-1,3.1118305E0,3.84192E5,-4.5066478E5,-1.7543338E5,1.7097963E-1,6.451666E-1,-1.793502E5,1.4226066E5,-9.9096266E4,-5.025587E3,1.5941466E5,-4.8545504E4,2.3492172E5,1.1499104E6,1.2460328E5,2.17575E4,-1.9939261E5,2.6978578E5,5.4386194E5,-1.6720289E5],"split_indices":[27,13,27,8,9,15,0,9,2,0,5,15,9,22,13,7,13,13,0,0,0,24,24,0,0,0,0,0,0,0,0,0,0,0,0,0,0],"split_type":[0,0,0,0,0,0,0,0,0,0,0,0,0,0,0,0,0,0,0,0,0,0,0,0,0,0,0,0,0,0,0,0,0,0,0,0,0],"sum_hessian":[8.28E2,7.2E2,1.08E2,7.14E2,6E0,1.07E2,1E0,5.15E2,1.99E2,1E0,5E0,8E0,9.9E1,9.9E1,4.16E2,1.9E2,9E0,4E0,1E0,3E0,5E0,1.9E1,8E1,9.6E1,3E0,2.64E2,1.52E2,6.8E1,1.22E2,7E0,2E0,3E0,1E0,1.3E1,6E0,7.1E1,9E0],"tree_param":{"num_deleted":"0","num_feature":"28","num_nodes":"37","size_leaf_vector":"1"}},{"base_weights":[7.854118E4,-1.7403952E5,2.4786622E6,-5.971702E5,2.7031838E5,2.1234172E6,2.2640832E6,-6.6218594E5,1.4072814E5,-9.2706734E4,1.0976765E6,1.8094124E6,7.4801525E6,-7.7336256E5,-2.081529E5,-3.252232E5,2.72191E6,2.0575481E5,-8.582995E5,4.543137E6,5.9935194E5,1.271017E6,1.6048519E6,1.3599572E6,2.0411011E5,-1.3580461E5,-5.5817535E4,1.009555E5,-7.470421E4,-3.311776E4,-2.3587898E5,1.2281123E5,4.4895253E5,-4.6243676E4,1.3043558E5,-1.691617E5,-5.0732117E4,3.3627616E5,8.983319E5,5.5561867E4,8.9160944E5,-1.2116734E5,3.592149E5],"categories":[],"categories_nodes":[],"categories_segments":[],"categories_sizes":[],"default_left":[0,0,0,0,0,0,0,0,0,0,0,0,0,0,0,0,0,0,0,0,0,0,0,0,0,0,0,0,0,0,0,0,0,0,0,0,0,0,0,0,0,0,0],"id":13,"left_children":[1,3,5,7,9,11,-1,13,15,17,19,21,23,25,27,29,31,33,35,37,39,-1,41,-1,-1,-1,-1,-1,-1,-1,-1,-1,-1,-1,-1,-1,-1,-1,-1,-1,-1,-1,-1],"loss_changes":[5.029913E14,1.4136553E14,3.2198756E14,1.8563578E13,1.1033086E14,1.1766449E14,0E0,1.7708167E13,3.937179E13,5.8672596E13,1.895763E14,8.864125E13,2.649025E13,1.470518E13,1.8471073E13,3.3002585E12,1.293062E11,6.3395957E13,9.708266E12,3.315302E13,1.1893618E14,0E0,1.4296171E14,0E0,0E0,0E0,0E0,0E0,0E0,0E0,0E0,0E0,0E0,0E0,0E0,0E0,0E0,0E0,0E0,0E0,0E0,0E0,0E0],"parents":[2147483647,0,0,1,1,2,2,3,3,4,4,5,5,7,7,8,8,9,9,10,10,11,11,12,12,13,13,14,14,15,15,16,16,17,17,18,18,19,19,20,20,22,22],"right_children":[2,4,6,8,10,12,-1,14,16,18,20,22,24,26,28,30,32,34,36,38,40,-1,42,-1,-1,-1,-1,-1,-1,-1,-1,-1,-1,-1,-1,-1,-1,-1,-1,-1,-1,-1,-1],"split_conditions":[1.4154372E0,5.256271E-2,5.0411997E0,1E0,-1.1122379E-1,5.5592446E0,2.2640832E6,1E0,-6.8439804E-2,3E0,2E0,-6.859362E-1,3.5566304E0,1E0,3E0,5.73126E-2,1.5796778E-3,5.2391744E-1,-2.7537864E-1,6.6441625E-1,2.499977E0,1.271017E6,5.2391744E-1,1.3599572E6,2.0411011E5,-1.3580461E5,-5.5817535E4,1.009555E5,-7.470421E4,-3.311776E4,-2.3587898E5,1.2281123E5,4.4895253E5,-4.6243676E4,1.3043558E5,-1.691617E5,-5.0732117E4,3.3627616E5,8.983319E5,5.5561867E4,8.9160944E5,-1.2116734E5,3.592149E5],"split_indices":[27,13,27,22,24,13,0,2,15,7,7,5,5,25,7,27,15,8,24,13,13,0,8,0,0,0,0,0,0,0,0,0,0,0,0,0,0,0,0,0,0,0,0],"split_type":[0,0,0,0,0,0,0,0,0,0,0,0,0,0,0,0,0,0,0,0,0,0,0,0,0,0,0,0,0,0,0,0,0,0,0,0,0,0,0,0,0,0,0],"sum_hessian":[8.28E2,7.5E2,7.8E1,3.84E2,3.66E2,7.7E1,1E0,3.53E2,3.1E1,2.55E2,1.11E2,7.4E1,3E0,2.83E2,7E1,2.7E1,4E0,1.84E2,7.1E1,1.3E1,9.8E1,1E0,7.3E1,2E0,1E0,2.12E2,7.1E1,1.7E1,5.3E1,2.6E1,1E0,1E0,3E0,1.04E2,8E1,4.6E1,2.5E1,6E0,7E0,9.5E1,3E0,1.8E1,5.5E1],"tree_param":{"num_deleted":"0","num_feature":"28","num_nodes":"43","size_leaf_vector":"1"}},{"base_weights":[7.583194E4,-1.5627542E5,2.1638845E6,-2.1371362E5,2.055763E6,1.4003231E6,7.034439E6,-4.324538E5,3.217634E5,1.7705935E6,8.584213E5,1.0727564E6,1.01739894E6,4.9455135E6,2.094277E6,-2.069185E5,-6.624668E5,1.2979815E5,2.2648948E6,1.6919492E6,-3.7228706E5,8.634459E5,1.1636385E6,6.9620565E6,1.80185E5,-7.644761E4,2.1269738E4,-9.106181E4,-2.0416403E5,7.355902E5,8.1789355E3,1.0569502E5,6.4832625E5,1.086177E5,5.2241825E5,3.9537863E4,4.024211E5,1.8536464E6,6.004778E5,-1.6030001E3,5.6460004E4],"categories":[],"categories_nodes":[],"categories_segments":[],"categories_sizes":[],"default_left":[0,0,0,0,0,0,0,0,0,0,0,0,0,0,0,0,0,0,0,0,0,0,0,0,0,0,0,0,0,0,0,0,0,0,0,0,0,0,0,0,0],"id":14,"left_children":[1,3,5,7,9,11,13,15,17,-1,19,21,-1,23,-1,25,27,29,31,33,-1,35,-1,37,39,-1,-1,-1,-1,-1,-1,-1,-1,-1,-1,-1,-1,-1,-1,-1,-1],"loss_changes":[4.0211497E14,9.534982E13,2.988238E14,8.552716E13,2.1163367E14,1.21428255E14,9.013069E13,2.6734729E13,7.878493E13,0E0,5.4315998E13,9.124614E13,0E0,9.484046E13,0E0,2.7836593E13,9.079771E12,6.9448136E13,5.7942447E13,2.3476493E13,0E0,7.459685E13,0E0,6.228394E13,1.5383E11,0E0,0E0,0E0,0E0,0E0,0E0,0E0,0E0,0E0,0E0,0E0,0E0,0E0,0E0,0E0,0E0],"parents":[2147483647,0,0,1,1,2,2,3,3,4,4,5,5,6,6,7,7,8,8,10,10,11,11,13,13,15,15,16,16,17,17,18,18,19,19,21,21,23,23,24,24],"right_children":[2,4,6,8,10,12,14,16,18,-1,20,22,-1,24,-1,26,28,30,32,34,-1,36,-1,38,40,-1,-1,-1,-1,-1,-1,-1,-1,-1,-1,-1,-1,-1,-1,-1,-1],"split_conditions":[1.3956039E0,2.499977E0,1E0,-4.7857296E-3,-5.5221075E-1,1E0,4.4942627E0,3E0,1E0,1.7705935E6,1E0,6.782952E0,1.01739894E6,1.8881234E0,2.094277E6,5.256271E-2,5.73126E-2,-6.859362E-1,-1.7821875E-1,1E0,-3.7228706E5,1E0,1.1636385E6,1.4974505E0,2.070337E0,-7.644761E4,2.1269738E4,-9.106181E4,-2.0416403E5,7.355902E5,8.1789355E3,1.0569502E5,6.4832625E5,1.086177E5,5.2241825E5,3.9537863E4,4.024211E5,1.8536464E6,6.004778E5,-1.6030001E3,5.6460004E4],"split_indices":[15,13,22,15,15,18,27,7,22,0,12,13,0,13,0,13,27,5,24,16,0,16,0,15,15,0,0,0,0,0,0,0,0,0,0,0,0,0,0,0,0],"split_type":[0,0,0,0,0,0,0,0,0,0,0,0,0,0,0,0,0,0,0,0,0,0,0,0,0,0,0,0,0,0,0,0,0,0,0,0,0,0,0,0,0],"sum_hessian":[8.28E2,7.46E2,8.2E1,7.28E2,1.8E1,7.2E1,1E1,5.17E2,2.11E2,1E0,1.7E1,6.9E1,3E0,9E0,1E0,2.62E2,2.55E2,1.93E2,1.8E1,1.4E1,3E0,6.8E1,1E0,6E0,3E0,1.4E2,1.22E2,2.38E2,1.7E1,2E0,1.91E2,1.1E1,7E0,1E1,4E0,5.2E1,1.6E1,1E0,5E0,2E0,1E0],"tree_param":{"num_deleted":"0","num_feature":"28","num_nodes":"41","size_leaf_vector":"1"}},{"base_weights":[7.700596E4,4.5904016E4,1.9372062E6,-2.5511908E5,1.0720205E6,-1.8906933E5,-1.0492494E6,7.7263456E5,3.8566302E6,-4.0279512E5,9.974321E4,-9.328054E5,-3.1890647E5,6.3600906E5,6.3177475E6,1.7400825E6,6.284805E6,-5.6323387E4,-2.7971916E5,2.9337643E4,-1.8633922E5,-1.495676E5,-5.068101E4,7.7990945E4,1.0269773E6,1.1396586E6,1.858365E5,-1.53119E5,4.3545153E5,1.220564E6,7.279401E4],"categories":[],"categories_nodes":[],"categories_segments":[],"categories_sizes":[],"default_left":[0,0,0,0,0,0,0,0,0,0,0,0,0,0,0,0,0,0,0,0,0,0,0,0,0,0,0,0,0,0,0],"id":15,"left_children":[1,3,-1,5,7,9,11,13,15,17,19,21,-1,23,25,27,29,-1,-1,-1,-1,-1,-1,-1,-1,-1,-1,-1,-1,-1,-1],"loss_changes":[3.304082E14,2.5603006E14,0E0,3.3423427E13,1.5375075E14,3.66441E13,4.160737E12,1.2553213E14,8.157218E13,1.2912937E13,3.2783615E13,1.4231106E12,0E0,1.1754301E14,1.6590267E13,3.828105E13,8.199005E13,0E0,0E0,0E0,0E0,0E0,0E0,0E0,0E0,0E0,0E0,0E0,0E0,0E0,0E0],"parents":[2147483647,0,0,1,1,3,3,4,4,5,5,6,6,7,7,8,8,9,9,10,10,11,11,13,13,14,14,15,15,16,16],"right_children":[2,4,-1,6,8,10,12,14,16,18,20,22,-1,24,26,28,30,-1,-1,-1,-1,-1,-1,-1,-1,-1,-1,-1,-1,-1,-1],"split_conditions":[5.0411997E0,6.6441625E-1,1.9372062E6,1E0,1E0,-4.4399884E-1,1.0200448E0,5.5592446E0,-6.0307607E-2,1.9865589E-1,5E0,2.2882472E-1,-3.1890647E5,1E0,3.5566304E0,7.947558E-1,2E0,-5.6323387E4,-2.7971916E5,2.9337643E4,-1.8633922E5,-1.495676E5,-5.068101E4,7.7990945E4,1.0269773E6,1.1396586E6,1.858365E5,-1.53119E5,4.3545153E5,1.220564E6,7.279401E4],"split_indices":[27,13,0,0,22,15,15,13,24,27,7,15,0,2,5,27,7,0,0,0,0,0,0,0,0,0,0,0,0,0,0],"split_type":[0,0,0,0,0,0,0,0,0,0,0,0,0,0,0,0,0,0,0,0,0,0,0,0,0,0,0,0,0,0,0],"sum_hessian":[8.28E2,8.27E2,1E0,6.4E2,1.87E2,5.92E2,4.8E1,1.7E2,1.7E1,3.4E2,2.52E2,4.5E1,3E0,1.67E2,3E0,1E1,7E0,3.35E2,5E0,2.36E2,1.6E1,4E1,5E0,1.65E2,2E0,2E0,1E0,3E0,7E0,5E0,2E0],"tree_param":{"num_deleted":"0","num_feature":"28","num_nodes":"31","size_leaf_vector":"1"}},{"base_weights":[7.140344E4,4.263435E4,1.7919156E6,-2.0598928E5,1.01333825E6,-2.7461278E5,6.9487925E5,1.3157E6,-1.0667924E6,-1.3984292E5,-5.912574E5,2.1173136E5,5.941652E5,1.1932175E6,1.02569275E6,-1.5096295E6,1.9550731E5,-3.1659107E4,1.3428988E5,-9.475727E4,3.0701647E5,-2.2780752E5,5.7567637E4,2.079253E5,-2.3543028E5,-2.7321338E5,1.1406101E5],"categories":[],"categories_nodes":[],"categories_segments":[],"categories_sizes":[],"default_left":[0,0,0,0,0,0,0,0,0,0,0,0,0,0,0,0,0,0,0,0,0,0,0,0,0,0,0],"id":16,"left_children":[1,3,-1,5,7,9,11,13,15,17,19,21,-1,23,-1,25,-1,-1,-1,-1,-1,-1,-1,-1,-1,-1,-1],"loss_changes":[2.8269723E14,2.000382E14,0E0,4.099252E13,1.0769646E14,2.6119244E13,7.333051E13,9.194498E13,2.5058848E13,3.2035194E13,2.0824346E13,1.3087458E13,0E0,8.000477E13,0E0,1.4832867E13,0E0,0E0,0E0,0E0,0E0,0E0,0E0,0E0,0E0,0E0,0E0],"parents":[2147483647,0,0,1,1,3,3,4,4,5,5,6,6,7,7,8,8,9,9,10,10,11,11,13,13,15,15],"right_children":[2,4,-1,6,8,10,12,14,16,18,20,22,-1,24,-1,26,-1,-1,-1,-1,-1,-1,-1,-1,-1,-1,-1],"split_conditions":[5.0411997E0,3.2770845E-1,1.7919156E6,1E0,1E0,4E0,6.6441625E-1,5.5592446E0,1E0,1.341355E0,1E0,-6.829142E-1,5.941652E5,9.5025134E-1,1.02569275E6,3.2098825E0,1.9550731E5,-3.1659107E4,1.3428988E5,-9.475727E4,3.0701647E5,-2.2780752E5,5.7567637E4,2.079253E5,-2.3543028E5,-2.7321338E5,1.1406101E5],"split_indices":[27,27,0,22,19,7,13,13,17,8,18,24,0,24,0,27,0,0,0,0,0,0,0,0,0,0,0],"split_type":[0,0,0,0,0,0,0,0,0,0,0,0,0,0,0,0,0,0,0,0,0,0,0,0,0,0,0],"sum_hessian":[8.28E2,8.27E2,1E0,6.59E2,1.68E2,6.13E2,4.6E1,1.47E2,2.1E1,4.31E2,1.82E2,4.1E1,5E0,1.45E2,2E0,1.8E1,3E0,4.04E2,2.7E1,1.8E2,2E0,3E0,3.8E1,1.36E2,9E0,1.6E1,2E0],"tree_param":{"num_deleted":"0","num_feature":"28","num_nodes":"27","size_leaf_vector":"1"}},{"base_weights":[6.499357E4,3.838089E4,1.657522E6,-1.1095634E5,1.3983386E6,-1.5347684E5,1.5263279E6,1.1575072E6,8.707761E5,-1.8011786E5,2.6200852E6,1.6163554E6,4.1382362E5,2.3686258E6,2.3716948E5,-4.867439E4,2.9857996E4,8.350724E5,-1.4729994E5,1.7117367E5,-3.6257034E5,2.6863694E5,1.6074861E6,-4.254652E3,9.1396444E5],"categories":[],"categories_nodes":[],"categories_segments":[],"categories_sizes":[],"default_left":[0,0,0,0,0,0,0,0,0,0,0,0,0,0,0,0,0,0,0,0,0,0,0,0,0],"id":17,"left_children":[1,3,-1,5,7,9,11,13,-1,15,17,-1,19,21,23,-1,-1,-1,-1,-1,-1,-1,-1,-1,-1],"loss_changes":[2.4192935E14,1.6831559E14,0E0,5.2239004E13,8.030743E13,5.4338123E13,1.9105014E14,8.7494624E13,0E0,3.9644503E13,7.977594E13,0E0,3.9821293E13,1.447799E14,7.170037E13,0E0,0E0,0E0,0E0,0E0,0E0,0E0,0E0,0E0,0E0],"parents":[2147483647,0,0,1,1,3,3,4,4,5,5,6,6,7,7,9,9,10,10,12,12,13,13,14,14],"right_children":[2,4,-1,6,8,10,12,14,-1,16,18,-1,20,22,24,-1,-1,-1,-1,-1,-1,-1,-1,-1,-1],"split_conditions":[5.0411997E0,1.3956039E0,1.657522E6,2.499977E0,1E0,2.6260731E0,-5.5221075E-1,2E0,8.707761E5,5.2391744E-1,7.2825265E-1,1.6163554E6,1E0,8.4677234E-4,6.782952E0,-4.867439E4,2.9857996E4,8.350724E5,-1.4729994E5,1.7117367E5,-3.6257034E5,2.6863694E5,1.6074861E6,-4.254652E3,9.1396444E5],"split_indices":[27,15,0,13,18,27,15,7,0,8,5,0,12,24,13,0,0,0,0,0,0,0,0,0,0],"split_type":[0,0,0,0,0,0,0,0,0,0,0,0,0,0,0,0,0,0,0,0,0,0,0,0,0],"sum_hessian":[8.28E2,8.27E2,1E0,7.46E2,8.1E1,7.28E2,1.8E1,7.8E1,3E0,7.22E2,6E0,1E0,1.7E1,3.3E1,4.5E1,5.23E2,1.99E2,3E0,3E0,1.4E1,3E0,3.2E1,1E0,4.4E1,1E0],"tree_param":{"num_deleted":"0","num_feature":"28","num_nodes":"25","size_leaf_vector":"1"}},{"base_weights":[6.418071E4,3.956889E4,1.5332076E6,-9.150976E4,1.2331809E6,-1.2953764E5,1.3723762E6,-1.7956969E6,1.4959304E6,-1.5312617E5,2.3253258E6,1.4951286E6,3.4111666E5,-2.3156655E6,9.930863E4,3.5442432E6,1.0564929E6,-8.592238E4,-7.7040767E3,7.411267E5,-1.3072868E5,-1.8765506E5,2.2020505E5,-3.7490228E5,-1.0479383E5,8.960075E5,9.131751E4,1.1559143E5,7.7281375E5],"categories":[],"categories_nodes":[],"categories_segments":[],"categories_sizes":[],"default_left":[0,0,0,0,0,0,0,0,0,0,0,0,0,0,0,0,0,0,0,0,0,0,0,0,0,0,0,0,0],"id":18,"left_children":[1,3,-1,5,7,9,11,13,15,17,19,-1,21,23,-1,25,27,-1,-1,-1,-1,-1,-1,-1,-1,-1,-1,-1,-1],"loss_changes":[2.0683499E14,1.29659275E14,0E0,4.1762127E13,6.7944814E13,4.2569988E13,1.6501264E14,1.0478791E13,6.466355E13,3.0849911E13,6.2836017E13,0E0,3.4132543E13,3.6026974E10,0E0,8.906185E13,7.096503E13,0E0,0E0,0E0,0E0,0E0,0E0,0E0,0E0,0E0,0E0,0E0,0E0],"parents":[2147483647,0,0,1,1,3,3,4,4,5,5,6,6,7,7,8,8,9,9,10,10,12,12,13,13,15,15,16,16],"right_children":[2,4,-1,6,8,10,12,14,16,18,20,-1,22,24,-1,26,28,-1,-1,-1,-1,-1,-1,-1,-1,-1,-1,-1,-1],"split_conditions":[5.0411997E0,1.3956039E0,1.5332076E6,2.499977E0,-5.592909E-1,2.6260731E0,-5.5221075E-1,1E0,1.4974505E0,-6.829142E-1,7.2825265E-1,1.4951286E6,5.2391744E-1,1E0,9.930863E4,2.1587923E0,1E0,-8.592238E4,-7.7040767E3,7.411267E5,-1.3072868E5,-1.8765506E5,2.2020505E5,-3.7490228E5,-1.0479383E5,8.960075E5,9.131751E4,1.1559143E5,7.7281375E5],"split_indices":[27,15,0,13,13,27,15,12,15,24,5,0,8,6,0,8,18,0,0,0,0,0,0,0,0,0,0,0,0],"split_type":[0,0,0,0,0,0,0,0,0,0,0,0,0,0,0,0,0,0,0,0,0,0,0,0,0,0,0,0,0],"sum_hessian":[8.28E2,8.27E2,1E0,7.46E2,8.1E1,7.28E2,1.8E1,6E0,7.5E1,7.22E2,6E0,1E0,1.7E1,5E0,1E0,1.2E1,6.3E1,1.4E2,5.82E2,3E0,3E0,7E0,1E1,4E0,1E0,6E0,6E0,6E1,3E0],"tree_param":{"num_deleted":"0","num_feature":"28","num_nodes":"29","size_leaf_vector":"1"}},{"base_weights":[6.0672953E4,3.7908598E4,1.418217E6,-1.4989056E5,6.780221E5,-2.452249E5,2.1958223E5,3.45473E6,5.0261872E5,-3.359166E5,2.770923E5,1.0083125E5,3.2156912E6,-4.2582184E5,6.7594935E6,4.0600144E5,9.004941E5,-6.4600887E4,5.789772E4,1.5583647E4,2.9542816E5,-4.0525027E4,8.515372E4,5.5879E5,8.830425E4,-2.3790747E5,4.0314888E5,1.2342538E6,-4.386214E4,2.6783734E4,3.7841416E5],"categories":[],"categories_nodes":[],"categories_segments":[],"categories_sizes":[],"default_left":[0,0,0,0,0,0,0,0,0,0,0,0,0,0,0,0,0,0,0,0,0,0,0,0,0,0,0,0,0,0,0],"id":19,"left_children":[1,3,-1,5,7,9,11,13,15,17,19,21,23,25,27,29,-1,-1,-1,-1,-1,-1,-1,-1,-1,-1,-1,-1,-1,-1,-1],"loss_changes":[1.769239E14,9.963781E13,0E0,2.2632079E13,8.982787E13,2.425169E13,4.6640157E13,1.4394573E14,9.21626E13,2.992219E13,2.207333E13,2.2323514E13,4.50022E12,2.5936846E13,6.455589E13,8.428345E13,0E0,0E0,0E0,0E0,0E0,0E0,0E0,0E0,0E0,0E0,0E0,0E0,0E0,0E0,0E0],"parents":[2147483647,0,0,1,1,3,3,4,4,5,5,6,6,7,7,8,8,9,9,10,10,11,11,12,12,13,13,14,14,15,15],"right_children":[2,4,-1,6,8,10,12,14,16,18,20,22,24,26,28,30,-1,-1,-1,-1,-1,-1,-1,-1,-1,-1,-1,-1,-1,-1,-1],"split_conditions":[5.0411997E0,6.6441625E-1,1.418217E6,1E0,2.1158231E-2,1E0,7.972556E-1,1.6178373E-1,1E0,1E0,2.7569792E-1,5.256271E-2,1.341355E0,1E0,1E0,1E0,9.004941E5,-6.4600887E4,5.789772E4,1.5583647E4,2.9542816E5,-4.0525027E4,8.515372E4,5.5879E5,8.830425E4,-2.3790747E5,4.0314888E5,1.2342538E6,-4.386214E4,2.6783734E4,3.7841416E5],"split_indices":[27,13,0,25,5,16,15,27,2,22,24,13,8,22,0,22,0,0,0,0,0,0,0,0,0,0,0,0,0,0,0],"split_type":[0,0,0,0,0,0,0,0,0,0,0,0,0,0,0,0,0,0,0,0,0,0,0,0,0,0,0,0,0,0,0],"sum_hessian":[8.28E2,8.27E2,1E0,6.4E2,1.87E2,5.09E2,1.31E2,1E1,1.77E2,4.34E2,7.5E1,1.27E2,4E0,5E0,5E0,1.75E2,2E0,3.84E2,5E1,6.9E1,6E0,7.1E1,5.6E1,3E0,1E0,4E0,1E0,4E0,1E0,1.59E2,1.6E1],"tree_param":{"num_deleted":"0","num_feature":"28","num_nodes":"31","size_leaf_vector":"1"}},{"base_weights":[5.769456E4,3.6639426E4,1.3118509E6,1.3708698E4,4.756942E6,-7.779341E4,8.667945E5,8.493984E5,1.5298523E5,-2.3363299E4,-9.4567006E5,1.8480752E6,1.0132447E5,-2.2417656E4,5.1164496E4,-1.18075445E5,-3.0368094E5,2.0352088E5,1.3913428E6,-3.899701E4,8.0500244E5],"categories":[],"categories_nodes":[],"categories_segments":[],"categories_sizes":[],"default_left":[0,0,0,0,0,0,0,0,0,0,0,0,0,0,0,0,0,0,0,0,0],"id":20,"left_children":[1,3,-1,5,7,9,11,-1,-1,13,15,17,19,-1,-1,-1,-1,-1,-1,-1,-1],"loss_changes":[1.5132564E14,8.955748E13,0E0,6.446622E13,7.763405E12,3.521792E13,5.990402E13,0E0,0E0,3.2356585E13,5.9303977E12,1.1512715E14,8.890553E13,0E0,0E0,0E0,0E0,0E0,0E0,0E0,0E0],"parents":[2147483647,0,0,1,1,3,3,4,4,5,5,6,6,9,9,10,10,11,11,12,12],"right_children":[2,4,-1,6,8,10,12,-1,-1,14,16,18,20,-1,-1,-1,-1,-1,-1,-1,-1],"split_conditions":[5.0411997E0,5.5592446E0,1.3118509E6,1.3956039E0,3.5566304E0,1E0,2E0,8.493984E5,1.5298523E5,8.687614E-2,1E0,8.4677234E-4,1E0,-2.2417656E4,5.1164496E4,-1.18075445E5,-3.0368094E5,2.0352088E5,1.3913428E6,-3.899701E4,8.0500244E5],"split_indices":[27,13,0,15,5,19,7,0,0,15,21,24,18,0,0,0,0,0,0,0,0],"split_type":[0,0,0,0,0,0,0,0,0,0,0,0,0,0,0,0,0,0,0,0,0],"sum_hessian":[8.28E2,8.27E2,1E0,8.24E2,3E0,7.45E2,7.9E1,2E0,1E0,7.02E2,4.3E1,3.4E1,4.5E1,5.22E2,1.8E2,3.9E1,4E0,3.3E1,1E0,4.3E1,2E0],"tree_param":{"num_deleted":"0","num_feature":"28","num_nodes":"21","size_leaf_vector":"1"}},{"base_weights":[5.4205848E4,3.473086E4,1.2134622E6,1.4037776E4,4.2939965E6,-1.6439377E5,3.5634975E5,7.6445844E5,1.4151136E5,-6.6786825E5,-6.1552953E4,2.1526569E5,1.8699125E6,-7.942654E4,-3.4084288E5,-1.2859644E4,3.17566E5,1.73489E4,4.0407878E5,1.2470533E5,5.764619E5],"categories":[],"categories_nodes":[],"categories_segments":[],"categories_sizes":[],"default_left":[0,0,0,0,0,0,0,0,0,0,0,0,0,0,0,0,0,0,0,0,0],"id":21,"left_children":[1,3,-1,5,7,9,11,-1,-1,13,15,17,19,-1,-1,-1,-1,-1,-1,-1,-1],"loss_changes":[1.29450985E14,7.291743E13,0E0,5.0448967E13,5.945971E12,2.8074194E13,6.0029172E13,0E0,0E0,1.9219333E13,2.3990886E13,6.3878168E13,4.598625E13,0E0,0E0,0E0,0E0,0E0,0E0,0E0,0E0],"parents":[2147483647,0,0,1,1,3,3,4,4,5,5,6,6,9,9,10,10,11,11,12,12],"right_children":[2,4,-1,6,8,10,12,-1,-1,14,16,18,20,-1,-1,-1,-1,-1,-1,-1,-1],"split_conditions":[5.0411997E0,5.5592446E0,1.2134622E6,5.2391744E-1,3.5566304E0,-7.002298E-1,1E0,7.6445844E5,1.4151136E5,4.444703E-1,2.6260731E0,1E0,-6.0307607E-2,-7.942654E4,-3.4084288E5,-1.2859644E4,3.17566E5,1.73489E4,4.0407878E5,1.2470533E5,5.764619E5],"split_indices":[27,13,0,8,5,24,22,0,0,27,27,2,24,0,0,0,0,0,0,0,0],"split_type":[0,0,0,0,0,0,0,0,0,0,0,0,0,0,0,0,0,0,0,0,0],"sum_hessian":[8.28E2,8.27E2,1E0,8.24E2,3E0,5.42E2,2.82E2,2E0,1E0,9.1E1,4.51E2,2.59E2,2.3E1,8.5E1,6E0,4.47E2,4E0,2.5E2,9E0,1.6E1,7E0],"tree_param":{"num_deleted":"0","num_feature":"28","num_nodes":"21","size_leaf_vector":"1"}},{"base_weights":[4.9846363E4,3.1831646E4,1.1224525E6,8.461961E3,3.2320682E6,-8.4740266E4,5.77244E5,1.1623421E5,6.4003975E5,-1.6597167E5,6.948911E5,3.6840825E5,2.754062E6,-4.535342E4,4.553744E4,1.5352428E4,2.6283956E5,2.8144385E4,2.4917202E5,6.1532E5,-2.6382222E5],"categories":[],"categories_nodes":[],"categories_segments":[],"categories_sizes":[],"default_left":[0,0,0,0,0,0,0,0,0,0,0,0,0,0,0,0,0,0,0,0,0],"id":22,"left_children":[1,3,-1,5,7,9,11,-1,-1,13,15,17,19,-1,-1,-1,-1,-1,-1,-1,-1],"loss_changes":[1.1077025E14,6.189755E13,0E0,4.367759E13,1.1950608E13,4.4953363E13,5.171867E13,0E0,0E0,4.120543E13,4.1798655E13,2.4694225E13,6.8051676E13,0E0,0E0,0E0,0E0,0E0,0E0,0E0,0E0],"parents":[2147483647,0,0,1,1,3,3,4,4,5,5,6,6,9,9,10,10,11,11,12,12],"right_children":[2,4,-1,6,8,10,12,-1,-1,14,16,18,20,-1,-1,-1,-1,-1,-1,-1,-1],"split_conditions":[5.0411997E0,4.037248E0,1.1224525E6,1E0,1.2762699E0,1E0,1.6565856E0,1.1623421E5,6.4003975E5,1E0,5.2502938E-2,2.7569792E-1,2.5604734E0,-4.535342E4,4.553744E4,1.5352428E4,2.6283956E5,2.8144385E4,2.4917202E5,6.1532E5,-2.6382222E5],"split_indices":[27,15,0,16,13,22,15,0,0,25,15,24,15,0,0,0,0,0,0,0,0],"split_type":[0,0,0,0,0,0,0,0,0,0,0,0,0,0,0,0,0,0,0,0,0],"sum_hessian":[8.28E2,8.27E2,1E0,8.22E2,5E0,7.07E2,1.15E2,2E0,3E0,6.41E2,6.6E1,1.06E2,9E0,4.97E2,1.44E2,4.3E1,2.3E1,9.4E1,1.2E1,7E0,2E0],"tree_param":{"num_deleted":"0","num_feature":"28","num_nodes":"21","size_leaf_vector":"1"}},{"base_weights":[4.572999E4,2.9065924E4,1.03826825E6,1.1131949E4,3.7206815E6,6.627121E4,-8.2698694E5,6.546033E5,1.342995E5,-7.032645E4,5.835841E5,-1.00297494E6,4.2250547E5,-3.0014756E3,-9.751492E4,5.411641E5,5.731669E4,-8.719382E4,-2.5964164E5,-1.3696211E5,1.709034E5],"categories":[],"categories_nodes":[],"categories_segments":[],"categories_sizes":[],"default_left":[0,0,0,0,0,0,0,0,0,0,0,0,0,0,0,0,0,0,0,0,0],"id":23,"left_children":[1,3,-1,5,7,9,11,-1,-1,13,15,17,19,-1,-1,-1,-1,-1,-1,-1,-1],"loss_changes":[9.478818E13,5.4776604E13,0E0,3.818074E13,3.3634124E12,5.480544E13,1.1638443E13,0E0,0E0,1.7898733E13,9.732636E13,1.2807559E13,7.742234E12,0E0,0E0,0E0,0E0,0E0,0E0,0E0,0E0],"parents":[2147483647,0,0,1,1,3,3,4,4,5,5,6,6,9,9,10,10,11,11,12,12],"right_children":[2,4,-1,6,8,10,12,-1,-1,14,16,18,20,-1,-1,-1,-1,-1,-1,-1,-1],"split_conditions":[5.0411997E0,5.5592446E0,1.03826825E6,1E0,3.5566304E0,6.6441625E-1,1E0,6.546033E5,1.342995E5,1E0,2.1158231E-2,4.5061564E-1,2E0,-3.0014756E3,-9.751492E4,5.411641E5,5.731669E4,-8.719382E4,-2.5964164E5,-1.3696211E5,1.709034E5],"split_indices":[27,13,0,19,5,13,17,0,0,0,5,27,7,0,0,0,0,0,0,0,0],"split_type":[0,0,0,0,0,0,0,0,0,0,0,0,0,0,0,0,0,0,0,0,0],"sum_hessian":[8.28E2,8.27E2,1E0,8.24E2,3E0,7.74E2,5E1,2E0,1E0,6.13E2,1.61E2,4.4E1,6E0,5.65E2,4.8E1,9E0,1.52E2,2.9E1,1.5E1,2E0,4E0],"tree_param":{"num_deleted":"0","num_feature":"28","num_nodes":"21","size_leaf_vector":"1"}},{"base_weights":[4.1297797E4,2.588233E4,9.603978E5,-5.3727297E4,7.2239625E5,-4.1316672E5,3.3972008E4,5.4994594E5,4.0770285E6,-2.8951847E5,-1.3997141E6,3.236647E5,-1.8024712E5,1.0016952E6,-7.2762906E5,1.4075236E5,7.215708E5,4.1028906E4,-6.574853E4,-3.3036575E5,-4.825277E4,4.067448E4,5.325514E5,-3.437433E4,2.2219848E5,4.603075E5,6.4928848E4,-2.178785E5,4.3124453E4],"categories":[],"categories_nodes":[],"categories_segments":[],"categories_sizes":[],"default_left":[0,0,0,0,0,0,0,0,0,0,0,0,0,0,0,0,0,0,0,0,0,0,0,0,0,0,0,0,0],"id":24,"left_children":[1,3,-1,5,7,9,11,13,15,17,19,21,23,25,27,-1,-1,-1,-1,-1,-1,-1,-1,-1,-1,-1,-1,-1,-1],"loss_changes":[8.112871E13,4.5950765E13,0E0,2.3466844E13,4.6930978E13,1.7404548E13,3.723091E13,4.8054627E13,4.6942734E12,1.1095578E13,1.3137269E13,4.2235656E13,2.8379609E13,7.039528E13,1.6606483E13,0E0,0E0,0E0,0E0,0E0,0E0,0E0,0E0,0E0,0E0,0E0,0E0,0E0,0E0],"parents":[2147483647,0,0,1,1,3,3,4,4,5,5,6,6,7,7,8,8,9,9,10,10,11,11,12,12,13,13,14,14],"right_children":[2,4,-1,6,8,10,12,14,16,18,20,22,24,26,28,-1,-1,-1,-1,-1,-1,-1,-1,-1,-1,-1,-1,-1,-1],"split_conditions":[5.0411997E0,1.3574115E0,9.603978E5,-6.829142E-1,1E0,1.2762699E0,3E0,4E0,2E0,-8.9303786E-1,7.017745E-1,2.6260731E0,1E0,1.5611045E0,1.7647976E0,1.4075236E5,7.215708E5,4.1028906E4,-6.574853E4,-3.3036575E5,-4.825277E4,4.067448E4,5.325514E5,-3.437433E4,2.2219848E5,4.603075E5,6.4928848E4,-2.178785E5,4.3124453E4],"split_indices":[27,15,0,24,18,13,7,7,7,24,15,27,23,15,15,0,0,0,0,0,0,0,0,0,0,0,0,0,0],"split_type":[0,0,0,0,0,0,0,0,0,0,0,0,0,0,0,0,0,0,0,0,0,0,0,0,0,0,0,0,0],"sum_hessian":[8.28E2,8.27E2,1E0,7.43E2,8.4E1,1.45E2,5.98E2,8.1E1,3E0,1.3E2,1.5E1,2.54E2,3.44E2,6E1,2.1E1,1E0,2E0,2.7E1,1.03E2,8E0,7E0,2.51E2,3E0,3.35E2,9E0,1.2E1,4.8E1,1.2E1,9E0],"tree_param":{"num_deleted":"0","num_feature":"28","num_nodes":"29","size_leaf_vector":"1"}},{"base_weights":[3.8156184E4,2.3896826E4,8.883678E5,4.1777646E3,2.724712E6,-7.676453E4,4.9816884E5,1.08234305E5,5.318845E5,-1.4223808E5,5.517546E5,-9.891804E3,1.1930659E6,-3.3815555E4,5.9741113E4,9.632952E3,2.1338686E5,1.879156E4,-3.3058697E5,4.4824722E5,1.3096056E5],"categories":[],"categories_nodes":[],"categories_segments":[],"categories_sizes":[],"default_left":[0,0,0,0,0,0,0,0,0,0,0,0,0,0,0,0,0,0,0,0,0],"id":25,"left_children":[1,3,-1,5,7,9,11,-1,-1,13,15,17,19,-1,-1,-1,-1,-1,-1,-1,-1],"loss_changes":[6.941677E13,4.4085864E13,0E0,3.2945708E13,7.311146E12,2.921366E13,4.0965583E13,0E0,0E0,2.896055E13,2.835398E13,2.0442409E13,2.5540099E13,0E0,0E0,0E0,0E0,0E0,0E0,0E0,0E0],"parents":[2147483647,0,0,1,1,3,3,4,4,5,5,6,6,9,9,10,10,11,11,12,12],"right_children":[2,4,-1,6,8,10,12,-1,-1,14,16,18,20,-1,-1,-1,-1,-1,-1,-1,-1],"split_conditions":[5.0411997E0,4.037248E0,8.883678E5,1E0,1.2762699E0,1E0,1.925419E-1,1.08234305E5,5.318845E5,1E0,5.2502938E-2,1.7981109E-1,3.0711922E-1,-3.3815555E4,5.9741113E4,9.632952E3,2.1338686E5,1.879156E4,-3.3058697E5,4.4824722E5,1.3096056E5],"split_indices":[27,15,0,16,13,22,15,0,0,2,15,15,15,0,0,0,0,0,0,0,0],"split_type":[0,0,0,0,0,0,0,0,0,0,0,0,0,0,0,0,0,0,0,0,0],"sum_hessian":[8.28E2,8.27E2,1E0,8.22E2,5E0,7.07E2,1.15E2,2E0,3E0,6.41E2,6.6E1,6.7E1,4.8E1,5.56E2,8.5E1,4.3E1,2.3E1,6.4E1,3E0,6E0,4.2E1],"tree_param":{"num_deleted":"0","num_feature":"28","num_nodes":"21","size_leaf_vector":"1"}},{"base_weights":[3.489946E4,2.1709078E4,8.2174025E5,6.467221E3,3.1599148E6,2.679721E5,-1.0966688E5,5.507206E5,1.2189353E5,9.164037E4,2.8851792E6,-1.9214295E5,3.6513297E5,9.184573E3,5.4968944E5,1.4576567E5,6.398117E5,-1.851683E4,-1.5768725E5,2.8593426E4,7.6073044E5],"categories":[],"categories_nodes":[],"categories_segments":[],"categories_sizes":[],"default_left":[0,0,0,0,0,0,0,0,0,0,0,0,0,0,0,0,0,0,0,0,0],"id":26,"left_children":[1,3,-1,5,7,9,11,-1,-1,13,15,17,19,-1,-1,-1,-1,-1,-1,-1,-1],"loss_changes":[5.940336E13,3.958453E13,0E0,2.5084335E13,1.8195646E12,1.1695575E14,2.2469463E13,0E0,0E0,2.574372E13,3.8110134E13,2.8671174E13,6.8845025E13,0E0,0E0,0E0,0E0,0E0,0E0,0E0,0E0],"parents":[2147483647,0,0,1,1,3,3,4,4,5,5,6,6,9,9,10,10,11,11,12,12],"right_children":[2,4,-1,6,8,10,12,-1,-1,14,16,18,20,-1,-1,-1,-1,-1,-1,-1,-1],"split_conditions":[5.0411997E0,5.5592446E0,8.2174025E5,2E0,3.5566304E0,-4.312941E-2,1E0,5.507206E5,1.2189353E5,1E0,-1.511901E-1,2.1424415E0,6.6441625E-1,9.184573E3,5.4968944E5,1.4576567E5,6.398117E5,-1.851683E4,-1.5768725E5,2.8593426E4,7.6073044E5],"split_indices":[27,13,0,7,5,24,2,0,0,23,15,5,13,0,0,0,0,0,0,0,0],"split_type":[0,0,0,0,0,0,0,0,0,0,0,0,0,0,0,0,0,0,0,0,0],"sum_hessian":[8.28E2,8.27E2,1E0,8.24E2,3E0,2.53E2,5.71E2,2E0,1E0,2.38E2,1.5E1,4.87E2,8.4E1,2.37E2,1E0,7E0,8E0,4.52E2,3.5E1,8.2E1,2E0],"tree_param":{"num_deleted":"0","num_feature":"28","num_nodes":"21","size_leaf_vector":"1"}},{"base_weights":[3.382851E4,2.1629281E4,7.6010944E5,4.609327E3,2.3525948E6,-6.3146348E4,4.1811284E5,1.048361E5,4.5070675E5,-4.4383734E5,2.1633455E4,3.291198E5,5.4907156E5,-4.9110082E4,-4.164338E5,-3.5977053E3,1.8556312E5,2.3914766E4,2.2946842E5],"categories":[],"categories_nodes":[],"categories_segments":[],"categories_sizes":[],"default_left":[0,0,0,0,0,0,0,0,0,0,0,0,0,0,0,0,0,0,0],"id":27,"left_children":[1,3,-1,5,7,9,11,-1,-1,13,15,17,-1,-1,-1,-1,-1,-1,-1],"loss_changes":[5.0795685E13,3.2838334E13,0E0,2.3084566E13,4.3703683E12,2.2860234E13,3.22668E13,0E0,0E0,3.4124344E13,3.2188802E13,2.2982378E13,0E0,0E0,0E0,0E0,0E0,0E0,0E0],"parents":[2147483647,0,0,1,1,3,3,4,4,5,5,6,6,9,9,10,10,11,11],"right_children":[2,4,-1,6,8,10,12,-1,-1,14,16,18,-1,-1,-1,-1,-1,-1,-1],"split_conditions":[5.0411997E0,4.037248E0,7.6010944E5,1E0,1.2762699E0,-6.829142E-1,2.9271958E0,1.048361E5,4.5070675E5,2.3828785E0,1E0,2.7569792E-1,5.4907156E5,-4.9110082E4,-4.164338E5,-3.5977053E3,1.8556312E5,2.3914766E4,2.2946842E5],"split_indices":[27,15,0,16,13,24,27,0,0,15,18,24,0,0,0,0,0,0,0],"split_type":[0,0,0,0,0,0,0,0,0,0,0,0,0,0,0,0,0,0,0],"sum_hessian":[8.28E2,8.27E2,1E0,8.22E2,5E0,7.07E2,1.15E2,2E0,3E0,1.28E2,5.79E2,1.13E2,2E0,1.23E2,5E0,5.59E2,2E1,1E2,1.3E1],"tree_param":{"num_deleted":"0","num_feature":"28","num_nodes":"19","size_leaf_vector":"1"}},{"base_weights":[3.0967143E4,1.9682467E4,7.03101E5,6.4318413E3,2.7477032E6,-1.0842266E5,2.2678366E5,4.7191753E5,1.1643473E5,-7.7830336E4,-1.5809031E6,1.564977E5,2.1299402E6,-1.6029507E4,3.178592E5,-1.04638086E5,-3.301103E5,3.6866035E4,-1.5819206E5,4.4962997E5,-1.3404319E5],"categories":[],"categories_nodes":[],"categories_segments":[],"categories_sizes":[],"default_left":[0,0,0,0,0,0,0,0,0,0,0,0,0,0,0,0,0,0,0,0,0],"id":28,"left_children":[1,3,-1,5,7,9,11,-1,-1,13,15,17,19,-1,-1,-1,-1,-1,-1,-1,-1],"loss_changes":[4.34681E13,2.9912853E13,0E0,2.0904017E13,6.9973154E11,2.4337264E13,3.752221E13,0E0,0E0,3.4222486E13,4.487377E12,2.9884903E13,2.8910864E13,0E0,0E0,0E0,0E0,0E0,0E0,0E0,0E0],"parents":[2147483647,0,0,1,1,3,3,4,4,5,5,6,6,9,9,10,10,11,11,12,12],"right_children":[2,4,-1,6,8,10,12,-1,-1,14,16,18,20,-1,-1,-1,-1,-1,-1,-1,-1],"split_conditions":[5.0411997E0,5.5592446E0,7.03101E5,5.2391744E-1,3.5566304E0,1E0,1E0,4.7191753E5,1.1643473E5,2.499977E0,6.6441625E-1,1.49748E0,4E0,-1.6029507E4,3.178592E5,-1.04638086E5,-3.301103E5,3.6866035E4,-1.5819206E5,4.4962997E5,-1.3404319E5],"split_indices":[27,13,0,8,5,12,2,0,0,13,13,24,7,0,0,0,0,0,0,0,0],"split_type":[0,0,0,0,0,0,0,0,0,0,0,0,0,0,0,0,0,0,0,0,0],"sum_hessian":[8.28E2,8.27E2,1E0,8.24E2,3E0,5.42E2,2.82E2,2E0,1E0,5.32E2,1E1,2.73E2,9E0,5.26E2,6E0,5E0,5E0,2.55E2,1.8E1,7E0,2E0],"tree_param":{"num_deleted":"0","num_feature":"28","num_nodes":"21","size_leaf_vector":"1"}},{"base_weights":[2.7953934E4,1.7514775E4,6.5036825E5,-3.9983324E4,5.410949E5,-1.4940614E4,-9.987282E5,2.0643719E6,2.2418219E5,-2.9147897E5,5.3628617E4,-1.1028926E6,6.571737E4,3.3231232E6,-1.6781717E5,1.942956E4,3.546555E6,-3.0941738E4,-2.5871347E5,3.262195E3,2.1820564E5,-5.963491E4,-2.1336381E5,7.60072E5,-1.85538E4,2.3954745E5,-1.2602608E5,-1.7222875E4,6.5591975E5,2.0423902E5,7.57608E5],"categories":[],"categories_nodes":[],"categories_segments":[],"categories_sizes":[],"default_left":[0,0,0,0,0,0,0,0,0,0,0,0,0,0,0,0,0,0,0,0,0,0,0,0,0,0,0,0,0,0,0],"id":29,"left_children":[1,3,-1,5,7,9,11,13,15,17,19,21,-1,23,25,27,29,-1,-1,-1,-1,-1,-1,-1,-1,-1,-1,-1,-1,-1,-1],"loss_changes":[3.720432E13,2.494846E13,0E0,1.7920227E13,3.912236E13,1.3838946E13,3.3268842E12,3.989447E13,4.6869342E13,1.7351079E13,2.6098677E13,3.4912422E12,0E0,5.4728696E13,8.461194E12,3.907473E13,6.2691465E12,0E0,0E0,0E0,0E0,0E0,0E0,0E0,0E0,0E0,0E0,0E0,0E0,0E0,0E0],"parents":[2147483647,0,0,1,1,3,3,4,4,5,5,6,6,7,7,8,8,9,9,10,10,11,11,13,13,14,14,15,15,16,16],"right_children":[2,4,-1,6,8,10,12,14,16,18,20,22,-1,24,26,28,30,-1,-1,-1,-1,-1,-1,-1,-1,-1,-1,-1,-1,-1,-1],"split_conditions":[5.0411997E0,1.3956039E0,6.5036825E5,1E0,1.4974505E0,-6.829142E-1,1.0264102E0,1.2762699E0,1E0,1.2372217E0,2.499977E0,-2.9352E-1,6.571737E4,4E0,1.4337963E0,1E0,7.2825265E-1,-3.0941738E4,-2.5871347E5,3.262195E3,2.1820564E5,-5.963491E4,-2.1336381E5,7.60072E5,-1.85538E4,2.3954745E5,-1.2602608E5,-1.7222875E4,6.5591975E5,2.0423902E5,7.57608E5],"split_indices":[27,15,0,1,15,24,15,13,18,27,13,8,0,7,15,2,5,0,0,0,0,0,0,0,0,0,0,0,0,0,0],"split_type":[0,0,0,0,0,0,0,0,0,0,0,0,0,0,0,0,0,0,0,0,0,0,0,0,0,0,0,0,0,0,0],"sum_hessian":[8.28E2,8.27E2,1E0,7.46E2,8.1E1,7.28E2,1.8E1,1.3E1,6.8E1,1.44E2,5.84E2,1.7E1,1E0,8E0,5E0,6.5E1,3E0,1.37E2,7E0,5.72E2,1.2E1,6E0,1.1E1,5E0,3E0,1E0,4E0,6.4E1,1E0,2E0,1E0],"tree_param":{"num_deleted":"0","num_feature":"28","num_nodes":"31","size_leaf_vector":"1"}},{"base_weights":[2.7175205E4,1.7520576E4,6.015906E5,3.021299E3,2.003418E6,2.334286E5,-9.849209E4,1.3181453E5,4.2527272E5,8.345228E4,2.4403635E6,-8.082192E4,-1.7519079E6,1.0344156E3,1.6106605E5,-3.3977336E4,4.6098325E5,-1.5871657E4,2.9001356E5,-3.0966653E5,-1.4192288E4],"categories":[],"categories_nodes":[],"categories_segments":[],"categories_sizes":[],"default_left":[0,0,0,0,0,0,0,0,0,0,0,0,0,0,0,0,0,0,0,0,0],"id":30,"left_children":[1,3,-1,5,7,9,11,-1,-1,13,15,17,19,-1,-1,-1,-1,-1,-1,-1,-1],"loss_changes":[3.181185E13,2.3835443E13,0E0,1.927249E13,3.1210508E12,8.320532E13,1.657004E13,0E0,0E0,1.7960802E13,2.7700224E13,2.8744081E13,2.9124492E12,0E0,0E0,0E0,0E0,0E0,0E0,0E0,0E0],"parents":[2147483647,0,0,1,1,3,3,4,4,5,5,6,6,9,9,10,10,11,11,12,12],"right_children":[2,4,-1,6,8,10,12,-1,-1,14,16,18,20,-1,-1,-1,-1,-1,-1,-1,-1],"split_conditions":[5.0411997E0,4.037248E0,6.015906E5,2E0,2.97623E0,-4.312941E-2,4.263725E0,1.3181453E5,4.2527272E5,1.4353471E0,5.256271E-2,3.5566304E0,1E0,1.0344156E3,1.6106605E5,-3.3977336E4,4.6098325E5,-1.5871657E4,2.9001356E5,-3.0966653E5,-1.4192288E4],"split_indices":[27,15,0,7,8,24,5,0,0,5,13,5,6,0,0,0,0,0,0,0,0],"split_type":[0,0,0,0,0,0,0,0,0,0,0,0,0,0,0,0,0,0,0,0,0],"sum_hessian":[8.28E2,8.27E2,1E0,8.22E2,5E0,2.51E2,5.71E2,3E0,2E0,2.36E2,1.5E1,5.66E2,5E0,2.2E2,1.6E1,3E0,1.2E1,5.6E2,6E0,4E0,1E0],"tree_param":{"num_deleted":"0","num_feature":"28","num_nodes":"21","size_leaf_vector":"1"}},{"base_weights":[2.5147297E4,1.6216778E4,5.5647125E5,5.5237085E3,2.2176082E6,4.486817E4,-5.924661E5,3.853598E5,8.724278E4,-1.2478288E5,2.0755133E5,-7.3565694E5,4.1268406E5,-1.5249784E4,-2.7574116E5,2.3927836E4,3.775777E5,-5.711565E4,-2.0326344E5,-1.0472319E5,1.4949758E5],"categories":[],"categories_nodes":[],"categories_segments":[],"categories_sizes":[],"default_left":[0,0,0,0,0,0,0,0,0,0,0,0,0,0,0,0,0,0,0,0,0],"id":31,"left_children":[1,3,-1,5,7,9,11,-1,-1,13,15,17,19,-1,-1,-1,-1,-1,-1,-1,-1],"loss_changes":[2.7218854E13,1.9478566E13,0E0,1.9436843E13,8.057048E11,2.1415412E13,7.6439345E12,0E0,0E0,1.4865639E13,4.3529628E13,9.376279E12,5.236663E12,0E0,0E0,0E0,0E0,0E0,0E0,0E0,0E0],"parents":[2147483647,0,0,1,1,3,3,4,4,5,5,6,6,9,9,10,10,11,11,12,12],"right_children":[2,4,-1,6,8,10,12,-1,-1,14,16,18,20,-1,-1,-1,-1,-1,-1,-1,-1],"split_conditions":[5.0411997E0,5.5592446E0,5.5647125E5,1E0,3.5566304E0,5.256271E-2,1E0,3.853598E5,8.724278E4,1.974665E0,1E0,4.5061564E-1,2E0,-1.5249784E4,-2.7574116E5,2.3927836E4,3.775777E5,-5.711565E4,-2.0326344E5,-1.0472319E5,1.4949758E5],"split_indices":[27,13,0,19,5,13,17,0,0,27,23,27,7,0,0,0,0,0,0,0,0],"split_type":[0,0,0,0,0,0,0,0,0,0,0,0,0,0,0,0,0,0,0,0,0],"sum_hessian":[8.28E2,8.27E2,1E0,8.24E2,3E0,7.74E2,5E1,2E0,1E0,3.79E2,3.95E2,4.4E1,6E0,3.75E2,4E0,3.88E2,7E0,2.9E1,1.5E1,2E0,4E0],"tree_param":{"num_deleted":"0","num_feature":"28","num_nodes":"21","size_leaf_vector":"1"}},{"base_weights":[2.2489734E4,-1.1203962E4,8.620235E5,5.361096E3,-1.8838214E6,3.1492928E6,-3.1620125E4,-3.1802535E4,6.087496E5,-6.1398805E4,-3.5876322E5,3.6933508E6,1.245089E5,-9.3248394E5,3.5781592E6,-1.0327516E4,-8.540914E5,1.2842264E6,-6.19077E5,6.5510475E5,2.0083161E5,-1.7631645E6,1.9121904E6,4.5178E6,-1.3530301E4,1.1162705E3,-1.28496484E5,-1.4191828E5,6.0184316E4,3.7348922E5,-1.312058E4,-2.0196892E5,1.408301E5,-4.8637806E5,-8.269485E4,6.0283504E4,3.2839397E5,8.555755E5,7.197675E4],"categories":[],"categories_nodes":[],"categories_segments":[],"categories_sizes":[],"default_left":[0,0,0,0,0,0,0,0,0,0,0,0,0,0,0,0,0,0,0,0,0,0,0,0,0,0,0,0,0,0,0,0,0,0,0,0,0,0,0],"id":32,"left_children":[1,3,5,7,9,11,13,15,17,-1,-1,19,-1,21,23,25,27,29,31,-1,-1,33,35,37,-1,-1,-1,-1,-1,-1,-1,-1,-1,-1,-1,-1,-1,-1,-1],"loss_changes":[2.3459577E13,2.476407E13,6.5507705E13,1.7779256E13,4.2636128E12,8.290478E12,8.138264E13,1.3182205E13,3.8945975E13,0E0,0E0,5.261268E12,0E0,5.0631818E13,1.7642224E13,1.0969408E13,2.5746379E12,4.983351E13,2.0528908E13,0E0,0E0,2.689688E13,1.2126844E12,1.6419685E13,0E0,0E0,0E0,0E0,0E0,0E0,0E0,0E0,0E0,0E0,0E0,0E0,0E0,0E0,0E0],"parents":[2147483647,0,0,1,1,2,2,3,3,4,4,5,5,6,6,7,7,8,8,11,11,13,13,14,14,15,15,16,16,17,17,18,18,21,21,22,22,23,23],"right_children":[2,4,6,8,10,12,14,16,18,-1,-1,20,-1,22,24,26,28,30,32,-1,-1,34,36,38,-1,-1,-1,-1,-1,-1,-1,-1,-1,-1,-1,-1,-1,-1,-1],"split_conditions":[2.2294722E0,2.070337E0,2.598666E0,1.3956039E0,-5.3696823E-1,2.97623E0,6.0489472E-2,1E0,4E0,-6.1398805E4,-3.5876322E5,2E0,1.245089E5,4.037248E0,1E0,2.849536E0,1.0264102E0,2.1587923E0,1.7647976E0,6.5510475E5,2.0083161E5,1.907066E0,1.341355E0,2.1587923E0,-1.3530301E4,1.1162705E3,-1.28496484E5,-1.4191828E5,6.0184316E4,3.7348922E5,-1.312058E4,-2.0196892E5,1.408301E5,-4.8637806E5,-8.269485E4,6.0283504E4,3.2839397E5,8.555755E5,7.197675E4],"split_indices":[15,15,15,15,24,8,24,1,7,0,0,7,0,15,0,5,15,8,15,0,0,27,8,8,0,0,0,0,0,0,0,0,0,0,0,0,0,0,0],"split_type":[0,0,0,0,0,0,0,0,0,0,0,0,0,0,0,0,0,0,0,0,0,0,0,0,0,0,0,0,0,0,0,0,0,0,0,0,0,0,0],"sum_hessian":[8.28E2,7.97E2,3.1E1,7.91E2,6E0,8E0,2.3E1,7.46E2,4.5E1,2E0,4E0,6E0,2E0,1.9E1,4E0,7.28E2,1.8E1,2.9E1,1.6E1,4E0,2E0,1.5E1,4E0,3E0,1E0,7.14E2,1.4E1,1.7E1,1E0,1.5E1,1.4E1,1.1E1,5E0,6E0,9E0,1E0,3E0,2E0,1E0],"tree_param":{"num_deleted":"0","num_feature":"28","num_nodes":"39","size_leaf_vector":"1"}},{"base_weights":[2.0785744E4,-2.9376467E4,4.9738112E5,-5.7498293E4,1.3543011E6,7.8797644E5,3.6906097E5,-4.358345E4,-3.894747E5,1.1759982E6,3.310386E5,-7.8330194E5,7.278249E5,-5.9225695E4,2.2489012E6,-3.3065922E5,3.1019222E5,1.764854E5,-1.8693419E6,4.827591E6,3.487775E5,-2.7688474E3,-1.3795631E5,4.964958E5,6.57295E4,-1.5917745E5,2.9566975E5,1.4654952E5,-2.2029878E5,-3.2588822E5,4.1747027E4,5.5762203E4,8.772922E5,8.429005E4,-2.2817689E5],"categories":[],"categories_nodes":[],"categories_segments":[],"categories_sizes":[],"default_left":[0,0,0,0,0,0,0,0,0,0,0,0,0,0,0,0,0,0,0,0,0,0,0,0,0,0,0,0,0,0,0,0,0,0,0],"id":33,"left_children":[1,3,5,7,9,-1,11,13,-1,-1,15,17,19,21,23,25,-1,27,29,31,33,-1,-1,-1,-1,-1,-1,-1,-1,-1,-1,-1,-1,-1,-1],"loss_changes":[1.983358E13,2.9300439E13,4.6272132E13,2.5924886E13,9.695306E13,0E0,3.2817352E13,2.6454144E13,0E0,0E0,1.6774114E13,2.013489E13,9.155659E13,2.559074E13,8.156011E12,2.058837E13,0E0,1.5921393E13,6.466071E12,2.0573397E13,2.3175996E13,0E0,0E0,0E0,0E0,0E0,0E0,0E0,0E0,0E0,0E0,0E0,0E0,0E0,0E0],"parents":[2147483647,0,0,1,1,2,2,3,3,4,4,6,6,7,7,10,10,11,11,12,12,13,13,14,14,15,15,17,17,18,18,19,19,20,20],"right_children":[2,4,6,8,10,-1,12,14,-1,-1,16,18,20,22,24,26,-1,28,30,32,34,-1,-1,-1,-1,-1,-1,-1,-1,-1,-1,-1,-1,-1,-1],"split_conditions":[1.4154372E0,1.8881234E0,-6.859362E-1,2.834186E0,-5.5221075E-1,7.8797644E5,5.2391744E-1,2.2294722E0,-3.894747E5,1.1759982E6,1E0,-4.009169E-1,1.5813619E0,1.2762699E0,4E0,1E0,3.1019222E5,6.6441625E-1,3.5566304E0,6.6441625E-1,1.49748E0,-2.7688474E3,-1.3795631E5,4.964958E5,6.57295E4,-1.5917745E5,2.9566975E5,1.4654952E5,-2.2029878E5,-3.2588822E5,4.1747027E4,5.5762203E4,8.772922E5,8.429005E4,-2.2817689E5],"split_indices":[27,13,5,15,15,0,8,15,0,0,20,24,27,13,7,16,0,13,5,13,24,0,0,0,0,0,0,0,0,0,0,0,0,0,0],"split_type":[0,0,0,0,0,0,0,0,0,0,0,0,0,0,0,0,0,0,0,0,0,0,0,0,0,0,0,0,0,0,0,0,0,0,0],"sum_hessian":[8.28E2,7.5E2,7.8E1,7.36E2,1.4E1,1E0,7.7E1,7.33E2,3E0,1E0,1.3E1,1.8E1,5.9E1,7.29E2,4E0,1E1,3E0,1E1,8E0,4E0,5.5E1,6.97E2,3.2E1,2E0,2E0,8E0,2E0,7E0,3E0,7E0,1E0,1E0,3E0,5E1,5E0],"tree_param":{"num_deleted":"0","num_feature":"28","num_nodes":"35","size_leaf_vector":"1"}},{"base_weights":[2.1134686E4,1.3764375E4,4.592814E5,2.4229992E4,-1.7137222E6,-2.059791E4,4.6570194E5,-8.3495055E4,-3.449355E5,-4.6690957E4,1.2593345E6,7.2887825E5,3.4233297E5,-5.143501E3,-3.456588E5,1.0877982E6,4.699331E4,2.765333E5,2.0335018E4],"categories":[],"categories_nodes":[],"categories_segments":[],"categories_sizes":[],"default_left":[0,0,0,0,0,0,0,0,0,0,0,0,0,0,0,0,0,0,0],"id":34,"left_children":[1,3,-1,5,7,9,11,-1,-1,13,15,-1,17,-1,-1,-1,-1,-1,-1],"loss_changes":[1.8536745E13,1.5011113E13,0E0,1.6316767E13,2.10937E12,2.5073405E13,3.9530057E13,0E0,0E0,2.0499246E13,8.27679E13,0E0,2.3030227E13,0E0,0E0,0E0,0E0,0E0,0E0],"parents":[2147483647,0,0,1,1,3,3,4,4,5,5,6,6,9,9,10,10,12,12],"right_children":[2,4,-1,6,8,10,12,-1,-1,14,16,-1,18,-1,-1,-1,-1,-1,-1],"split_conditions":[5.0411997E0,1E0,4.592814E5,1.4154372E0,2.1158231E-2,1.8881234E0,-6.859362E-1,-8.3495055E4,-3.449355E5,2.834186E0,-5.5221075E-1,7.2887825E5,1.5813619E0,-5.143501E3,-3.456588E5,1.0877982E6,4.699331E4,2.765333E5,2.0335018E4],"split_indices":[27,10,0,27,5,13,5,0,0,15,15,0,27,0,0,0,0,0,0],"split_type":[0,0,0,0,0,0,0,0,0,0,0,0,0,0,0,0,0,0,0],"sum_hessian":[8.28E2,8.27E2,1E0,8.23E2,4E0,7.48E2,7.5E1,2E0,2E0,7.34E2,1.4E1,1E0,7.4E1,7.31E2,3E0,1E0,1.3E1,8E0,6.6E1],"tree_param":{"num_deleted":"0","num_feature":"28","num_nodes":"19","size_leaf_vector":"1"}},{"base_weights":[2.018478E4,1.3368008E4,4.248354E5,4.311387E3,1.877954E6,1.724664E4,-1.3188571E6,3.263663E5,7.383675E4,5.02599E4,-4.8023238E5,-1.6671734E6,-1.8260567E5,-8.619929E3,4.2696875E4,-4.683465E4,-1.7067225E5,-2.859683E5,-3.53073E4,-4.2725176E4,1.6389E3],"categories":[],"categories_nodes":[],"categories_segments":[],"categories_sizes":[],"default_left":[0,0,0,0,0,0,0,0,0,0,0,0,0,0,0,0,0,0,0,0,0],"id":35,"left_children":[1,3,-1,5,7,9,11,-1,-1,13,15,17,19,-1,-1,-1,-1,-1,-1,-1,-1],"loss_changes":[1.5853332E13,1.3974214E13,0E0,1.4143049E13,5.797587E11,1.345848E13,2.861762E12,0E0,0E0,1.9407957E13,5.278953E12,1.6068662E12,6.2465647E10,0E0,0E0,0E0,0E0,0E0,0E0,0E0,0E0],"parents":[2147483647,0,0,1,1,3,3,4,4,5,5,6,6,9,9,10,10,11,11,12,12],"right_children":[2,4,-1,6,8,10,12,-1,-1,14,16,18,20,-1,-1,-1,-1,-1,-1,-1,-1],"split_conditions":[5.0411997E0,5.5592446E0,4.248354E5,3.723684E0,3.5566304E0,1E0,1E0,3.263663E5,7.383675E4,1.1615701E-1,1.2619303E0,2.97623E0,7.2825265E-1,-8.619929E3,4.2696875E4,-4.683465E4,-1.7067225E5,-2.859683E5,-3.53073E4,-4.2725176E4,1.6389E3],"split_indices":[27,13,0,13,5,19,25,0,0,15,15,8,5,0,0,0,0,0,0,0,0],"split_type":[0,0,0,0,0,0,0,0,0,0,0,0,0,0,0,0,0,0,0,0,0],"sum_hessian":[8.28E2,8.27E2,1E0,8.24E2,3E0,8.17E2,7E0,2E0,1E0,7.67E2,5E1,5E0,2E0,5.26E2,2.41E2,4.1E1,9E0,4E0,1E0,1E0,1E0],"tree_param":{"num_deleted":"0","num_feature":"28","num_nodes":"21","size_leaf_vector":"1"}},{"base_weights":[1.7493977E4,-8.618964E3,6.6813875E5,5.228295E3,-1.5741061E6,2.4089995E6,-1.2523125E4,3.492072E4,-6.0160144E5,-3.8451766E5,-6.65678E5,1.5153524E6,5.5367644E5,-7.744888E5,3.0378442E6,-1.7238018E3,7.8984706E5,2.2478469E5,-7.015661E5,-1.4706301E4,-1.1746148E5,2.5120694E5,4.193925E4,-1.4482342E6,1.5363944E6,3.8648445E6,-2.0261775E4,-5.060698E4,7.823451E3,3.0418144E5,2.0688328E4,-1.7157402E5,-1.1587684E4,-3.023259E5,1.13618555E5,4.1085256E5,-2.455572E5,7.359493E5,5.5529402E4],"categories":[],"categories_nodes":[],"categories_segments":[],"categories_sizes":[],"default_left":[0,0,0,0,0,0,0,0,0,0,0,0,0,0,0,0,0,0,0,0,0,0,0,0,0,0,0,0,0,0,0,0,0,0,0,0,0,0,0],"id":36,"left_children":[1,3,5,7,9,11,13,15,17,-1,19,21,-1,23,25,27,29,-1,31,-1,-1,-1,-1,33,35,37,-1,-1,-1,-1,-1,-1,-1,-1,-1,-1,-1,-1,-1],"loss_changes":[1.4090674E13,1.7307039E13,3.7948167E13,1.4291458E13,4.5848094E12,4.7188856E12,5.813538E13,2.0915279E13,8.819215E12,0E0,2.5642376E11,9.102751E11,0E0,3.3364002E13,1.3642095E13,1.3075108E13,2.7968882E13,0E0,9.851594E12,0E0,0E0,0E0,0E0,2.1546278E13,2.3566169E13,1.2742182E13,0E0,0E0,0E0,0E0,0E0,0E0,0E0,0E0,0E0,0E0,0E0,0E0,0E0],"parents":[2147483647,0,0,1,1,2,2,3,3,4,4,5,5,6,6,7,7,8,8,10,10,11,11,13,13,14,14,15,15,16,16,18,18,23,23,24,24,25,25],"right_children":[2,4,6,8,10,12,14,16,18,-1,20,22,-1,24,26,28,30,-1,32,-1,-1,-1,-1,34,36,38,-1,-1,-1,-1,-1,-1,-1,-1,-1,-1,-1,-1,-1],"split_conditions":[2.2294722E0,2.070337E0,2.598666E0,2.1424415E0,7.2825265E-1,3.2098825E0,6.0489472E-2,1.3956039E0,-8.9303786E-1,-3.8451766E5,1.2762699E0,1.9562289E0,5.5367644E5,4.0948143E0,1E0,-7.676371E-1,1.4974505E0,2.2478469E5,1.2619303E0,-1.4706301E4,-1.1746148E5,2.5120694E5,4.193925E4,4.037248E0,2.1424415E0,2.1587923E0,-2.0261775E4,-5.060698E4,7.823451E3,3.0418144E5,2.0688328E4,-1.7157402E5,-1.1587684E4,-3.023259E5,1.13618555E5,4.1085256E5,-2.455572E5,7.359493E5,5.5529402E4],"split_indices":[15,15,15,5,5,27,24,15,24,0,13,27,0,27,0,24,15,0,15,0,0,0,0,15,5,8,0,0,0,0,0,0,0,0,0,0,0,0,0],"split_type":[0,0,0,0,0,0,0,0,0,0,0,0,0,0,0,0,0,0,0,0,0,0,0,0,0,0,0,0,0,0,0,0,0,0,0,0,0,0,0],"sum_hessian":[8.28E2,7.97E2,3.1E1,7.91E2,6E0,8E0,2.3E1,7.55E2,3.6E1,2E0,4E0,6E0,2E0,1.9E1,4E0,7.21E2,3.4E1,1E0,3.5E1,1E0,3E0,5E0,1E0,1.5E1,4E0,3E0,1E0,9.9E1,6.22E2,1.1E1,2.3E1,2E1,1.5E1,1.2E1,3E0,3E0,1E0,2E0,1E0],"tree_param":{"num_deleted":"0","num_feature":"28","num_nodes":"39","size_leaf_vector":"1"}},{"base_weights":[1.6560693E4,5.6204004E4,-3.7133506E5,-1.351716E4,5.3925706E5,-1.7895075E5,-1.3046925E6,1.3954192E5,-2.6773822E5,3.3749734E5,3.4757772E6,-2.3834155E5,1.17951664E5,-1.3925922E6,-1.8742125E4,8.290438E4,1.374669E6,-1.9267662E5,-9.6028494E5,1.3423733E5,1.647501E6,5.254477E6,-5.4415168E4,-1.6263569E5,-1.9431267E5,-2.3378114E5,-6.7105975E5,1.6841354E4,-1.7839102E5,-2.1417162E5,3.0455284E5,-3.8689336E4,1.8540605E5,-2.270857E5,-5.074035E3,-1.2272335E5,5.279327E4,-5.636258E4,3.1345894E5,1.0506951E6,3.0067502E2,-2.2935938E4,1.0692525E4,-5.665564E4,6.570571E3,-1.20567555E5,-2.0466602E4],"categories":[],"categories_nodes":[],"categories_segments":[],"categories_sizes":[],"default_left":[0,0,0,0,0,0,0,0,0,0,0,0,0,0,0,0,0,0,0,0,0,0,0,0,0,0,0,0,0,0,0,0,0,0,0,0,0,0,0,0,0,0,0,0,0,0,0],"id":37,"left_children":[1,3,5,7,9,11,13,15,17,19,21,23,-1,25,-1,27,29,31,33,35,37,39,41,43,-1,-1,45,-1,-1,-1,-1,-1,-1,-1,-1,-1,-1,-1,-1,-1,-1,-1,-1,-1,-1,-1,-1],"loss_changes":[1.2768795E13,2.5367593E13,1.3592903E13,2.5679607E13,5.5111733E13,3.9138458E12,1.1740905E12,2.8707312E13,1.2706923E13,2.3743265E13,3.796084E13,4.7509846E12,0E0,3.9097414E11,0E0,1.4892906E13,3.5974663E13,2.1294892E13,1.2258518E13,1.6668833E13,1.1522011E13,3.675655E13,4.804029E10,2.636065E12,0E0,0E0,1.7415366E11,0E0,0E0,0E0,0E0,0E0,0E0,0E0,0E0,0E0,0E0,0E0,0E0,0E0,0E0,0E0,0E0,0E0,0E0,0E0,0E0],"parents":[2147483647,0,0,1,1,2,2,3,3,4,4,5,5,6,6,7,7,8,8,9,9,10,10,11,11,13,13,15,15,16,16,17,17,18,18,19,19,20,20,21,21,22,22,23,23,26,26],"right_children":[2,4,6,8,10,12,14,16,18,20,22,24,-1,26,-1,28,30,32,34,36,38,40,42,44,-1,-1,46,-1,-1,-1,-1,-1,-1,-1,-1,-1,-1,-1,-1,-1,-1,-1,-1,-1,-1,-1,-1],"split_conditions":[1.49748E0,3.8866174E-1,1.6178373E-1,3E0,2.499977E0,8.4817886E-1,2.2294722E0,2.6260731E0,7.947558E-1,1E0,6.451666E-1,6.6441625E-1,1.17951664E5,2.499977E0,-1.8742125E4,2.598666E0,-8.2212627E-1,1.2619303E0,1E0,5.664904E-1,-2.7213284E-1,1.4353471E0,7.2825265E-1,-7.9855204E-1,-1.9431267E5,-2.3378114E5,5E0,1.6841354E4,-1.7839102E5,-2.1417162E5,3.0455284E5,-3.8689336E4,1.8540605E5,-2.270857E5,-5.074035E3,-1.2272335E5,5.279327E4,-5.636258E4,3.1345894E5,1.0506951E6,3.0067502E2,-2.2935938E4,1.0692525E4,-5.665564E4,6.570571E3,-1.20567555E5,-2.0466602E4],"split_indices":[24,24,27,7,13,15,15,27,27,16,24,13,0,13,0,15,24,15,16,24,15,5,5,15,0,0,7,0,0,0,0,0,0,0,0,0,0,0,0,0,0,0,0,0,0,0,0],"split_type":[0,0,0,0,0,0,0,0,0,0,0,0,0,0,0,0,0,0,0,0,0,0,0,0,0,0,0,0,0,0,0,0,0,0,0,0,0,0,0,0,0,0,0,0,0,0,0],"sum_hessian":[8.28E2,7.52E2,7.6E1,6.58E2,9.4E1,6.4E1,1.2E1,4.11E2,2.47E2,8.9E1,5E0,6.1E1,3E0,1.1E1,1E0,3.94E2,1.7E1,2.24E2,2.3E1,7.8E1,1.1E1,3E0,2E0,5.8E1,3E0,8E0,3E0,3.86E2,8E0,3E0,1.4E1,2.15E2,9E0,1.4E1,9E0,1.4E1,6.4E1,2E0,9E0,2E0,1E0,1E0,1E0,2.8E1,3E1,2E0,1E0],"tree_param":{"num_deleted":"0","num_feature":"28","num_nodes":"47","size_leaf_vector":"1"}},{"base_weights":[1.4739242E4,4.584932E4,-3.9960075E5,-1.9367573E5,1.174285E5,-2.6750706E5,-6.566612E5,-3.6392553E5,2.2585122E5,6.222185E5,8.999571E4,-8.255404E4,-5.6006562E4,-8.7257E5,-4.3430418E4,-1.8850512E5,-9.010822E5,6.752937E4,1.4283971E6,5.5281664E4,9.8689244E5,-2.1378072E5,4.5294603E5,-1.3443619E5,-1.5924867E5,-2.289007E5,6.629408E4,-3.626369E4,3.692823E5,-2.1496158E5,5.391224E4,5.4124004E4,-2.446378E4,2.9302325E5,3.78215E4,1.1011749E4,-2.496292E5,5.5760375E4,3.8480312E5,-8.663991E4,-1.1738367E4,6.834919E3,7.879633E4,-3.0484889E4,5.396475E3,3.9816938E4,-6.282735E4],"categories":[],"categories_nodes":[],"categories_segments":[],"categories_sizes":[],"default_left":[0,0,0,0,0,0,0,0,0,0,0,0,0,0,0,0,0,0,0,0,0,0,0,0,0,0,0,0,0,0,0,0,0,0,0,0,0,0,0,0,0,0,0,0,0,0,0],"id":38,"left_children":[1,3,5,7,9,11,13,15,17,-1,19,-1,21,23,25,27,29,31,33,35,37,39,41,43,-1,45,-1,-1,-1,-1,-1,-1,-1,-1,-1,-1,-1,-1,-1,-1,-1,-1,-1,-1,-1,-1,-1],"loss_changes":[1.0704256E13,1.3258688E13,1.7937906E12,1.2795735E13,6.5417725E13,2.3621196E12,2.47774E12,1.1797126E13,9.803785E12,0E0,1.8377314E13,0E0,2.0240208E12,1.8112829E12,6.413186E11,1.4285813E13,2.130299E13,3.2379555E12,3.2132836E12,1.792258E13,2.0408389E13,8.916231E11,1.5293848E11,5.420671E10,0E0,5.806837E11,0E0,0E0,0E0,0E0,0E0,0E0,0E0,0E0,0E0,0E0,0E0,0E0,0E0,0E0,0E0,0E0,0E0,0E0,0E0,0E0,0E0],"parents":[2147483647,0,0,1,1,2,2,3,3,4,4,5,5,6,6,7,7,8,8,10,10,12,12,13,13,14,14,15,15,16,16,17,17,18,18,19,19,20,20,21,21,22,22,23,23,25,25],"right_children":[2,4,6,8,10,12,14,16,18,-1,20,-1,22,24,26,28,30,32,34,36,38,40,42,44,-1,46,-1,-1,-1,-1,-1,-1,-1,-1,-1,-1,-1,-1,-1,-1,-1,-1,-1,-1,-1,-1,-1],"split_conditions":[1E0,-6.467025E-1,5.256271E-2,1E0,-6.440914E-1,-5.592909E-1,1.2619303E0,4.2480513E-1,4.444703E-1,6.222185E5,2.2294722E0,-8.255404E4,-3.4828117E-1,-3.2369974E-1,2.1424415E0,1.3574115E0,1E0,-4.4660693E-1,1.341355E0,2.070337E0,1.829982E-2,4E0,-2.9352E-1,1E0,-1.5924867E5,7.2825265E-1,6.629408E4,-3.626369E4,3.692823E5,-2.1496158E5,5.391224E4,5.4124004E4,-2.446378E4,2.9302325E5,3.78215E4,1.1011749E4,-2.496292E5,5.5760375E4,3.8480312E5,-8.663991E4,-1.1738367E4,6.834919E3,7.879633E4,-3.0484889E4,5.396475E3,3.9816938E4,-6.282735E4],"split_indices":[0,24,13,25,24,13,15,27,27,0,15,0,27,27,5,15,16,27,8,15,24,7,8,4,0,5,0,0,0,0,0,0,0,0,0,0,0,0,0,0,0,0,0,0,0,0,0],"split_type":[0,0,0,0,0,0,0,0,0,0,0,0,0,0,0,0,0,0,0,0,0,0,0,0,0,0,0,0,0,0,0,0,0,0,0,0,0,0,0,0,0,0,0,0,0,0,0],"sum_hessian":[8.28E2,7.71E2,5.7E1,1.77E2,5.94E2,3.9E1,1.8E1,1.26E2,5.1E1,3E0,5.91E2,1.6E1,2.3E1,1.3E1,5E0,9.6E1,3E1,4.6E1,5E0,5.7E2,2.1E1,1.8E1,5E0,3E0,1E1,4E0,1E0,9.5E1,1E0,2.1E1,9E0,2E1,2.6E1,3E0,2E0,5.65E2,5E0,1.6E1,5E0,4E0,1.4E1,1E0,4E0,2E0,1E0,1E0,3E0],"tree_param":{"num_deleted":"0","num_feature":"28","num_nodes":"47","size_leaf_vector":"1"}},{"base_weights":[1.3879769E4,-4.3556547E5,4.2060227E4,-3.5073856E5,-1.9532756E5,6.1018887E3,4.3151644E5,2.8311266E5,-4.178461E5,-3.7553773E4,4.03221E5,1.4619398E5,1.7032846E6,-9.053638E4,9.835182E4,-5.551394E5,-2.2243116E5,-1.21617766E5,2.6714622E5,1.3337644E5,1.5968831E6,-1.6054482E6,3.1505706E5,3.5510528E6,3.35519E5,-1.1355301E4,-8.929254E4,2.854912E4,-4.2328008E4,-3.5989773E4,4.1887582E4,2.6491244E4,3.389588E5,-1.4723544E5,3.4846523E4,3.4728112E5,-8.972224E4,-3.3440113E4,-3.6792197E5,8.1194E4,-8.352431E4,2.244672E5,8.8271044E5,-1.5423228E5,2.9344606E5],"categories":[],"categories_nodes":[],"categories_segments":[],"categories_sizes":[],"default_left":[0,0,0,0,0,0,0,0,0,0,0,0,0,0,0,0,0,0,0,0,0,0,0,0,0,0,0,0,0,0,0,0,0,0,0,0,0,0,0,0,0,0,0,0,0],"id":39,"left_children":[1,3,5,7,-1,9,11,13,15,17,19,21,23,-1,-1,25,27,29,31,33,35,37,39,41,43,-1,-1,-1,-1,-1,-1,-1,-1,-1,-1,-1,-1,-1,-1,-1,-1,-1,-1,-1,-1],"loss_changes":[1.051808E13,3.1453893E12,1.0934646E13,2.0749626E12,0E0,1.2428075E13,2.3700015E13,2.0475022E12,1.0033441E12,1.6579325E13,2.2656345E13,1.6774131E13,2.9136318E13,0E0,0E0,4.1685562E11,5.2233575E11,2.4113173E13,2.4857467E13,6.7360664E12,2.1882514E13,5.3106537E12,1.0361269E13,1.5167786E13,1.9694096E13,0E0,0E0,0E0,0E0,0E0,0E0,0E0,0E0,0E0,0E0,0E0,0E0,0E0,0E0,0E0,0E0,0E0,0E0,0E0,0E0],"parents":[2147483647,0,0,1,1,2,2,3,3,5,5,6,6,7,7,8,8,9,9,10,10,11,11,12,12,15,15,16,16,17,17,18,18,19,19,20,20,21,21,22,22,23,23,24,24],"right_children":[2,4,6,8,-1,10,12,14,16,18,20,22,24,-1,-1,26,28,30,32,34,36,38,40,42,44,-1,-1,-1,-1,-1,-1,-1,-1,-1,-1,-1,-1,-1,-1,-1,-1,-1,-1,-1,-1],"split_conditions":[-8.84485E-1,-2.9352E-1,1E0,-9.595968E-1,-1.9532756E5,1E0,7.972556E-1,1E0,-5.592909E-1,1E0,-2.4667121E-1,-6.829142E-1,1.341355E0,-9.053638E4,9.835182E4,-6.2794393E-1,-9.341352E-1,1E0,1.4353471E0,-2.7537864E-1,4E0,-3.8034478E-1,2.8469092E-1,-6.0307607E-2,1.4353471E0,-1.1355301E4,-8.929254E4,2.854912E4,-4.2328008E4,-3.5989773E4,4.1887582E4,2.6491244E4,3.389588E5,-1.4723544E5,3.4846523E4,3.4728112E5,-8.972224E4,-3.3440113E4,-3.6792197E5,8.1194E4,-8.352431E4,2.244672E5,8.8271044E5,-1.5423228E5,2.9344606E5],"split_indices":[15,8,22,15,0,2,15,2,13,25,15,24,8,0,0,24,15,16,5,24,7,15,27,24,5,0,0,0,0,0,0,0,0,0,0,0,0,0,0,0,0,0,0,0,0],"split_type":[0,0,0,0,0,0,0,0,0,0,0,0,0,0,0,0,0,0,0,0,0,0,0,0,0,0,0,0,0,0,0,0,0,0,0,0,0,0,0,0,0,0,0,0,0],"sum_hessian":[8.28E2,4.8E1,7.8E2,4.5E1,3E0,7.15E2,6.5E1,4E0,4.1E1,6.45E2,7E1,5.4E1,1.1E1,1E0,3E0,2.3E1,1.8E1,5.06E2,1.39E2,5.8E1,1.2E1,4E0,5E1,4E0,7E0,2E0,2.1E1,2E0,1.6E1,3.91E2,1.15E2,1.34E2,5E0,4E0,5.4E1,9E0,3E0,2E0,2E0,4E1,1E1,3E0,1E0,4E0,3E0],"tree_param":{"num_deleted":"0","num_feature":"28","num_nodes":"45","size_leaf_vector":"1"}},{"base_weights":[1.3073218E4,1.7169573E5,-5.7694094E4,8.473435E4,2.1008598E6,-6.160649E5,-2.5769113E4,3.4267188E4,1.2723328E6,1.2222696E6,8.1650706E5,-2.4523972E5,-1.2679979E6,-4.8941273E4,7.946984E5,1.0488846E5,-6.6066294E5,-9.3291E5,1.9402572E6,-4.0178766E5,2.5177611E5,2.330857E5,-4.5210894E5,-3.2163294E5,-6.7138744E5,-1.04119336E5,2.4115706E5,4.0879E5,4.6480622E5,-1.5954513E3,7.980888E4,-1.4260644E5,7.734564E4,2.26875E3,-2.1217352E5,5.13172E4,3.6239284E5,1.4328256E5,-2.3368478E5,-5.9411816E3,4.277039E4,-8.750622E4,4.0111875E4,9.8496266E4,-1.4323678E5,-1.0646164E4,-1.6827106E5,2.2005398E4,4.1610147E5,1.3888052E5,-6.524427E4],"categories":[],"categories_nodes":[],"categories_segments":[],"categories_sizes":[],"default_left":[0,0,0,0,0,0,0,0,0,0,0,0,0,0,0,0,0,0,0,0,0,0,0,0,0,0,0,0,0,0,0,0,0,0,0,0,0,0,0,0,0,0,0,0,0,0,0,0,0,0,0],"id":40,"left_children":[1,3,5,7,9,11,13,15,17,19,-1,21,23,25,27,29,31,33,35,37,-1,39,41,-1,43,45,47,49,-1,-1,-1,-1,-1,-1,-1,-1,-1,-1,-1,-1,-1,-1,-1,-1,-1,-1,-1,-1,-1,-1,-1],"loss_changes":[9.31567E12,4.276925E13,1.0216235E13,1.4700345E13,2.5650476E13,7.183385E12,1.0381424E13,1.1700509E13,1.653944E13,8.0839673E12,0E0,2.1833469E12,4.3107882E12,8.5088535E12,1.2070328E13,1.0665001E13,7.9962267E12,1.3910582E12,5.255295E12,6.194674E12,0E0,1.1065E11,1.5727298E12,0E0,3.6392647E12,1.4964482E13,1.9928367E13,6.510739E12,0E0,0E0,0E0,0E0,0E0,0E0,0E0,0E0,0E0,0E0,0E0,0E0,0E0,0E0,0E0,0E0,0E0,0E0,0E0,0E0,0E0,0E0,0E0],"parents":[2147483647,0,0,1,1,2,2,3,3,4,4,5,5,6,6,7,7,8,8,9,9,11,11,12,12,13,13,14,14,15,15,16,16,17,17,18,18,19,19,21,21,22,22,24,24,25,25,26,26,27,27],"right_children":[2,4,6,8,10,12,14,16,18,20,-1,22,24,26,28,30,32,34,36,38,-1,40,42,-1,44,46,48,50,-1,-1,-1,-1,-1,-1,-1,-1,-1,-1,-1,-1,-1,-1,-1,-1,-1,-1,-1,-1,-1,-1,-1],"split_conditions":[2E0,8.4677234E-4,-7.676371E-1,3.2098825E0,5.362739E-1,-1.14757486E-1,1E0,1.5813619E0,6.6441625E-1,5.256271E-2,8.1650706E5,-6.494038E-1,3E0,1E0,2.499977E0,4.2424273E-1,1.4353471E0,2.1158231E-2,-7.2805846E-1,-4.7582588E-1,2.5177611E5,-9.0750897E-1,-2.395083E-1,-3.2163294E5,1.783762E-1,1.9875867E0,6.6441625E-1,2.1158231E-2,4.6480622E5,-1.5954513E3,7.980888E4,-1.4260644E5,7.734564E4,2.26875E3,-2.1217352E5,5.13172E4,3.6239284E5,1.4328256E5,-2.3368478E5,-5.9411816E3,4.277039E4,-8.750622E4,4.0111875E4,9.8496266E4,-1.4323678E5,-1.0646164E4,-1.6827106E5,2.2005398E4,4.1610147E5,1.3888052E5,-6.524427E4],"split_indices":[7,24,24,27,15,27,18,27,13,13,0,27,7,2,13,15,5,5,24,15,0,27,27,0,27,15,13,5,0,0,0,0,0,0,0,0,0,0,0,0,0,0,0,0,0,0,0,0,0,0,0],"split_type":[0,0,0,0,0,0,0,0,0,0,0,0,0,0,0,0,0,0,0,0,0,0,0,0,0,0,0,0,0,0,0,0,0,0,0,0,0,0,0,0,0,0,0,0,0,0,0,0,0,0,0],"sum_hessian":[8.28E2,2.55E2,5.73E2,2.45E2,1E1,3E1,5.43E2,2.36E2,9E0,9E0,1E0,2E1,1E1,5.29E2,1.4E1,2.15E2,2.1E1,2E0,7E0,2E0,7E0,6E0,1.4E1,3E0,7E0,4.45E2,8.4E1,1.3E1,1E0,1.7E2,4.5E1,1.7E1,4E0,1E0,1E0,2E0,5E0,1E0,1E0,1E0,5E0,1.2E1,2E0,1E0,6E0,4.32E2,1.3E1,8.2E1,2E0,8E0,5E0],"tree_param":{"num_deleted":"0","num_feature":"28","num_nodes":"51","size_leaf_vector":"1"}},{"base_weights":[1.306072E4,5.8240723E3,2.256245E5,1.6105477E4,-1.04746275E6,-1.6350795E4,3.6362116E5,-1.3020989E6,-1.8903633E5,-3.886284E4,1.1699154E6,6.044133E5,2.520962E5,-2.207617E5,-3.404025E4,-3.9220125E4,-3.31305E3,-1.3421809E3,-9.579239E4,9.3014256E5,4.5887484E4,-3.0723044E5,5.269981E4],"categories":[],"categories_nodes":[],"categories_segments":[],"categories_sizes":[],"default_left":[0,0,0,0,0,0,0,0,0,0,0,0,0,0,0,0,0,0,0,0,0,0,0],"id":41,"left_children":[1,3,-1,5,7,9,11,13,15,17,19,-1,21,-1,-1,-1,-1,-1,-1,-1,-1,-1,-1],"loss_changes":[8.936634E12,8.961846E12,0E0,9.243499E12,1.502547E12,2.0074421E13,2.7602182E13,7.603906E11,3.050197E10,1.321724E13,5.895834E13,0E0,1.6470373E13,0E0,0E0,0E0,0E0,0E0,0E0,0E0,0E0,0E0,0E0],"parents":[2147483647,0,0,1,1,3,3,4,4,5,5,6,6,7,7,8,8,9,9,10,10,12,12],"right_children":[2,4,-1,6,8,10,12,14,16,18,20,-1,22,-1,-1,-1,-1,-1,-1,-1,-1,-1,-1],"split_conditions":[5.5592446E0,3.723684E0,2.256245E5,1.4154372E0,1E0,1.8881234E0,-6.859362E-1,2.97623E0,7.2825265E-1,1.2762699E0,-5.5221075E-1,6.044133E5,-6.858843E-1,-2.207617E5,-3.404025E4,-3.9220125E4,-3.31305E3,-1.3421809E3,-9.579239E4,9.3014256E5,4.5887484E4,-3.0723044E5,5.269981E4],"split_indices":[13,13,0,27,25,13,5,8,5,13,15,0,15,0,0,0,0,0,0,0,0,0,0],"split_type":[0,0,0,0,0,0,0,0,0,0,0,0,0,0,0,0,0,0,0,0,0,0,0],"sum_hessian":[8.28E2,8.25E2,3E0,8.18E2,7E0,7.49E2,6.9E1,5E0,2E0,7.36E2,1.3E1,1E0,6.8E1,4E0,1E0,1E0,1E0,7.02E2,3.4E1,1E0,1.2E1,2E0,6.6E1],"tree_param":{"num_deleted":"0","num_feature":"28","num_nodes":"23","size_leaf_vector":"1"}},{"base_weights":[1.2497254E4,-3.2209562E5,4.2339535E4,-2.8302062E5,-1.611571E5,4.8991273E4,-2.4853203E5,-3.826133E5,-1.5075562E5,3.6326367E4,9.0805375E5,2.3220866E5,-4.641738E5,-3.0761766E5,5.0487945E4,4.9700227E4,-8.6667194E5,-8.509014E4,3.175267E5,-8.284701E4,8.4962625E4,-5.707875E3,-7.8245555E4,-5.309342E4,3.2534852E4,1.3965806E4,-3.776539E4,5.296677E3,1.3795402E5,-1.7111316E5,-4.644333E4,2.7054076E4,-1.25834555E5],"categories":[],"categories_nodes":[],"categories_segments":[],"categories_sizes":[],"default_left":[0,0,0,0,0,0,0,0,0,0,0,0,0,0,0,0,0,0,0,0,0,0,0,0,0,0,0,0,0,0,0,0,0],"id":42,"left_children":[1,3,5,7,-1,9,-1,11,13,15,17,19,21,23,25,27,29,31,-1,-1,-1,-1,-1,-1,-1,-1,-1,-1,-1,-1,-1,-1,-1],"loss_changes":[8.291215E12,1.6948249E12,8.693876E12,8.117121E11,0E0,8.2357707E12,0E0,1.9631571E12,9.6255515E11,9.100502E12,1.3385657E13,1.623811E12,7.881978E11,4.8996286E11,2.0378098E11,9.231122E12,1.3262494E12,1.5519935E12,0E0,0E0,0E0,0E0,0E0,0E0,0E0,0E0,0E0,0E0,0E0,0E0,0E0,0E0,0E0],"parents":[2147483647,0,0,1,1,2,2,3,3,5,5,7,7,8,8,9,9,10,10,11,11,12,12,13,13,14,14,15,15,16,16,17,17],"right_children":[2,4,6,8,-1,10,-1,12,14,16,18,20,22,24,26,28,30,32,-1,-1,-1,-1,-1,-1,-1,-1,-1,-1,-1,-1,-1,-1,-1],"split_conditions":[-7.5387496E-1,-1.511901E-1,1E0,-5.592909E-1,-1.611571E5,4.0948143E0,-2.4853203E5,-9.595968E-1,-7.8460175E-1,1E0,1.341355E0,1E0,-6.2794393E-1,1E0,1E0,1E0,1E0,1E0,3.175267E5,-8.284701E4,8.4962625E4,-5.707875E3,-7.8245555E4,-5.309342E4,3.2534852E4,1.3965806E4,-3.776539E4,5.296677E3,1.3795402E5,-1.7111316E5,-4.644333E4,2.7054076E4,-1.25834555E5],"split_indices":[27,15,10,13,0,27,0,15,27,26,8,2,24,16,10,23,21,12,0,0,0,0,0,0,0,0,0,0,0,0,0,0,0],"split_type":[0,0,0,0,0,0,0,0,0,0,0,0,0,0,0,0,0,0,0,0,0,0,0,0,0,0,0,0,0,0,0,0,0],"sum_hessian":[8.28E2,6.7E1,7.61E2,6.5E1,2E0,7.59E2,2E0,3.6E1,2.9E1,7.49E2,1E1,4E0,3.2E1,1.6E1,1.3E1,7.39E2,1E1,6E0,4E0,1E0,3E0,4E0,2.8E1,1.5E1,1E0,1.2E1,1E0,7.28E2,1.1E1,6E0,4E0,5E0,1E0],"tree_param":{"num_deleted":"0","num_feature":"28","num_nodes":"33","size_leaf_vector":"1"}},{"base_weights":[1.0150507E4,4.1800094E4,-2.9948962E5,-1.48289795E4,4.3418703E5,-1.4541945E5,-1.0468028E6,9.6946984E4,-2.004615E5,2.7249816E5,2.7871558E6,-1.9704967E5,1.036806E5,-1.1958066E6,-1.5152133E5,-1.4974428E5,2.3581081E5,-1.3453581E5,-8.101623E5,1.0167575E5,1.3743709E6,4.227967E6,-6.2978332E4,-1.3810725E5,-1.5257822E5,-1.3394535E6,-5.493955E4,-4.357455E4,9.48225E3,-2.7046572E4,3.280539E5,5.179691E5,2.783997E4,-2.819953E4,1.5505144E5,-1.8314155E5,-1.6946115E4,-1.0834569E5,4.3539125E4,-5.534708E4,2.6399088E5,8.504206E5,-7.240725E3,-2.2382701E4,8.212575E3,-4.5469875E4,3.108945E3,-2.3116794E5,-1.0531367E5],"categories":[],"categories_nodes":[],"categories_segments":[],"categories_sizes":[],"default_left":[0,0,0,0,0,0,0,0,0,0,0,0,0,0,0,0,0,0,0,0,0,0,0,0,0,0,0,0,0,0,0,0,0,0,0,0,0,0,0,0,0,0,0,0,0,0,0,0,0],"id":43,"left_children":[1,3,5,7,9,11,13,15,17,19,21,23,-1,25,27,29,31,33,35,37,39,41,43,45,-1,47,-1,-1,-1,-1,-1,-1,-1,-1,-1,-1,-1,-1,-1,-1,-1,-1,-1,-1,-1,-1,-1,-1,-1],"loss_changes":[8.136704E12,1.6738482E13,8.7134516E12,1.3693193E13,3.538315E13,2.9438803E12,1.5530145E12,1.4148988E13,9.859351E12,1.6800468E13,2.49053E13,2.8566581E12,0E0,8.201794E11,1.0789314E11,1.1036842E13,4.200691E13,1.4246438E13,6.735467E12,1.2485495E13,8.715554E12,2.4930532E13,3.8628446E10,1.5527641E12,0E0,7.4803315E10,0E0,0E0,0E0,0E0,0E0,0E0,0E0,0E0,0E0,0E0,0E0,0E0,0E0,0E0,0E0,0E0,0E0,0E0,0E0,0E0,0E0,0E0,0E0],"parents":[2147483647,0,0,1,1,2,2,3,3,4,4,5,5,6,6,7,7,8,8,9,9,10,10,11,11,13,13,14,14,15,15,16,16,17,17,18,18,19,19,20,20,21,21,22,22,23,23,25,25],"right_children":[2,4,6,8,10,12,14,16,18,20,22,24,-1,26,28,30,32,34,36,38,40,42,44,46,-1,48,-1,-1,-1,-1,-1,-1,-1,-1,-1,-1,-1,-1,-1,-1,-1,-1,-1,-1,-1,-1,-1,-1,-1],"split_conditions":[1.49748E0,3.8866174E-1,1.6178373E-1,3E0,2.499977E0,8.4817886E-1,1.8093554E0,-6.567346E-1,7.947558E-1,1E0,6.451666E-1,6.6441625E-1,1.036806E5,2.499977E0,1E0,1E0,-6.440914E-1,1.2619303E0,1E0,5.664904E-1,-2.7213284E-1,1.4353471E0,7.2825265E-1,-7.9855204E-1,-1.5257822E5,1E0,-5.493955E4,-4.357455E4,9.48225E3,-2.7046572E4,3.280539E5,5.179691E5,2.783997E4,-2.819953E4,1.5505144E5,-1.8314155E5,-1.6946115E4,-1.0834569E5,4.3539125E4,-5.534708E4,2.6399088E5,8.504206E5,-7.240725E3,-2.2382701E4,8.212575E3,-4.5469875E4,3.108945E3,-2.3116794E5,-1.0531367E5],"split_indices":[24,24,27,7,13,15,15,24,27,16,24,13,0,13,0,23,24,15,16,24,15,5,5,15,0,0,0,0,0,0,0,0,0,0,0,0,0,0,0,0,0,0,0,0,0,0,0,0,0],"split_type":[0,0,0,0,0,0,0,0,0,0,0,0,0,0,0,0,0,0,0,0,0,0,0,0,0,0,0,0,0,0,0,0,0,0,0,0,0,0,0,0,0,0,0,0,0,0,0,0,0],"sum_hessian":[8.28E2,7.52E2,7.6E1,6.58E2,9.4E1,6.4E1,1.2E1,4.11E2,2.47E2,8.9E1,5E0,6.1E1,3E0,1E1,2E0,1.48E2,2.63E2,2.24E2,2.3E1,7.8E1,1.1E1,3E0,2E0,5.8E1,3E0,8E0,2E0,1E0,1E0,1.47E2,1E0,3E0,2.6E2,2.15E2,9E0,1.4E1,9E0,1.4E1,6.4E1,2E0,9E0,2E0,1E0,1E0,1E0,2.8E1,3E1,5E0,3E0],"tree_param":{"num_deleted":"0","num_feature":"28","num_nodes":"49","size_leaf_vector":"1"}},{"base_weights":[1.0111227E4,-3.1483842E4,2.0654233E5,-3.7753797E5,1.1682711E4,8.138595E4,1.3718352E6,-1.8936227E5,-1.1973616E6,1.2482128E6,-1.1006478E4,1.3281769E5,-1.2515435E6,1.6002128E5,2.260693E6,-3.2375047E5,1.1412841E6,-1.8980594E6,-4.345808E5,2.2069838E6,-3.43709E5,-3.4894996E4,6.492957E5,2.8328445E4,1.6966151E6,-2.8809412E5,-1.6527833E5,-1.1127711E5,2.4146931E5,2.59422E6,-5.5497E3,-2.1062072E4,-1.2599321E5,8.40512E4,3.0344988E5,-3.2618953E5,-1.7912701E4,-1.1471482E5,5.55973E4,3.9292347E5,1.1757186E5,-6.782404E4,6.7572E3,-1.367048E4,4.084823E4,-4.7920875E4,2.103742E5,3.854809E4,-2.215779E4,5.070054E5,8.582033E4,-2.626725E3,-3.4560902E4,4.3671775E5,5.181233E4],"categories":[],"categories_nodes":[],"categories_segments":[],"categories_sizes":[],"default_left":[0,0,0,0,0,0,0,0,0,0,0,0,0,0,0,0,0,0,0,0,0,0,0,0,0,0,0,0,0,0,0,0,0,0,0,0,0,0,0,0,0,0,0,0,0,0,0,0,0,0,0,0,0,0,0],"id":44,"left_children":[1,3,5,7,9,11,13,15,17,19,21,23,25,27,29,31,33,35,37,39,41,43,45,47,49,-1,51,-1,-1,53,-1,-1,-1,-1,-1,-1,-1,-1,-1,-1,-1,-1,-1,-1,-1,-1,-1,-1,-1,-1,-1,-1,-1,-1,-1],"loss_changes":[6.7799016E12,1.0236916E13,2.103571E13,1.1497852E13,1.7127816E13,9.21547E12,1.4718064E13,1.1635352E13,6.657843E12,1.754773E13,9.486841E12,